{"type":"LSTM","options":{"inputSize":31,"inputRange":31,"hiddenLayers":[20,20],"outputSize":31,"decayRate":0.999,"smoothEps":1e-8,"regc":0.000001,"clipval":5,"maxPredictionLength":100,"dataFormatter":{"indexTable":{"2":22,"m":0,"y":1," ":2,"u":3,"n":4,"i":5,"t":6,"e":7,"s":8,"f":9,"a":10,"l":11,"d":12,"o":13,"w":14,"r":15,"h":16,"p":17,"g":18,",":19,"b":20,"v":21,"T":23,"B":24,"c":25,"-":26,"k":27,"stop-input":28,"start-output":29,"unrecognized":30},"characterTable":{"0":"m","1":"y","2":" ","3":"u","4":"n","5":"i","6":"t","7":"e","8":"s","9":"f","10":"a","11":"l","12":"d","13":"o","14":"w","15":"r","16":"h","17":"p","18":"g","19":",","20":"b","21":"v","22":"2","23":"T","24":"B","25":"c","26":"-","27":"k","28":null,"29":null,"30":null},"values":[{"input":"my unit test failed","output":"software"},{"input":"tried the program, but it was buggy","output":"software"},{"input":"i need a new power supply","output":"hardware"},{"input":"the drive has a 2TB capacity","output":"hardware"},{"input":"unit-tests","output":"software"},{"input":"program","output":"software"},{"input":"power supply","output":"hardware"},{"input":"drive","output":"hardware"},{"input":"it needs more memory","output":"hardware"},{"input":"code","output":"software"},{"input":"i found some bugs in the code","output":"software"},{"input":"i swapped the memory","output":"hardware"},{"input":"i tested the code","output":"software"},{"input":"i love computers","output":"hardware"},{"input":"programming","output":"software"},{"input":"i broke my pc","output":"hardware"},{"input":"computer","output":"hardware"},{"input":"buy me a laptop","output":"hardware"},{"input":"i love to play games","output":"software"}],"characters":["m","y"," ","u","n","i","t","e","s","f","a","l","d","o","w","r","h","p","g",",","b","v","2","T","B","c","-","k","stop-input","start-output","unrecognized"],"specialIndexes":[28,29,30]}},"trainOpts":{"iterations":50,"errorThresh":0.005,"log":false,"logPeriod":10,"learningRate":0.01,"callbackPeriod":10,"timeout":"Infinity"},"input":{"rows":32,"columns":31,"weights":[0.17974436283111572,-0.1847211867570877,1.0387850999832153,-0.17140361666679382,0.3071271479129791,1.1121195554733276,-0.3842673599720001,-0.37764257192611694,-0.21717311441898346,0.11940114200115204,0.4047934114933014,0.06865474581718445,0.3297249674797058,0.18487122654914856,-0.298597514629364,0.244599848985672,-0.1168236956000328,0.14544028043746948,-0.17593780159950256,-0.04755527153611183,0.15841715037822723,0.2615364193916321,0.041879378259181976,0.4196434020996094,0.21130679547786713,0.01057770848274231,-0.2793324291706085,1.987011194229126,-0.025039950385689735,0.03355874493718147,-0.12669651210308075,-1.7224164009094238,-0.7722348570823669,1.0909202098846436,-0.8762931823730469,-1.4672459363937378,1.0497840642929077,-1.2891876697540283,1.0259860754013062,1.0669969320297241,0.8561293482780457,-0.6108736395835876,1.9059613943099976,1.166383147239685,-2.370668411254883,0.8677707314491272,-0.6675995588302612,1.6294739246368408,1.1902310848236084,0.8741991519927979,-1.8867850303649902,-1.3868234157562256,-2.355736255645752,-1.8187841176986694,-1.220913052558899,-1.2906259298324585,-0.6148413419723511,-1.1124396324157715,0.7741183638572693,-0.9286710023880005,-1.0652837753295898,-2.0345990657806396,-1.1023579835891724,-0.5624388456344604,0.11719871312379837,-1.147268533706665,-1.8061443567276,0.18822245299816132,-1.5363221168518066,0.10356926172971725,0.835818350315094,0.9280656576156616,-0.06760123372077942,1.2453817129135132,1.2414917945861816,-1.1187467575073242,0.4932025969028473,-0.48540860414505005,0.7403097152709961,0.8562206625938416,0.8861889839172363,-1.0999383926391602,-0.8928793668746948,-1.5518513917922974,-1.6431026458740234,-1.7182011604309082,-1.4643694162368774,-0.1224612295627594,-0.13331535458564758,0.015922334045171738,0.34047096967697144,-0.3983194828033447,-2.3061535358428955,0.6306740045547485,-0.810409426689148,-1.2197736501693726,1.035072922706604,1.5658987760543823,-0.8790595531463623,0.006670637056231499,-1.5149027109146118,-0.11586137115955353,0.11628389358520508,0.9177724123001099,-0.9889304041862488,-0.5532259941101074,1.1094361543655396,-1.07607901096344,0.7929535508155823,-1.9170125722885132,-0.9875089526176453,-1.4132442474365234,0.7105970978736877,0.6820336580276489,1.1963821649551392,0.6316441297531128,1.5892598628997803,0.17349085211753845,-0.06830742210149765,1.8258347511291504,-0.6650099158287048,1.001829743385315,0.7073768973350525,1.4367592334747314,-0.9181185364723206,-1.2422001361846924,-1.1983674764633179,1.0670653581619263,2.762927532196045,0.0036845547147095203,-0.5673552751541138,-3.9563937187194824,-0.5678880214691162,-0.40661659836769104,0.8190315365791321,-0.525971531867981,0.9269269108772278,1.3296902179718018,-2.7612500190734863,0.8227778077125549,-1.1092040538787842,-1.8489699363708496,-2.1729660034179688,0.43457895517349243,0.8320963382720947,2.2590413093566895,-0.5956972241401672,2.6690495014190674,1.5540788173675537,0.9532759189605713,1.7759921550750732,0.1331721693277359,0.5373091101646423,0.06928359717130661,1.4160622358322144,-0.5113354921340942,-0.5014472603797913,1.9767835140228271,-1.397040843963623,-1.6450074911117554,1.1239289045333862,-0.6617457866668701,0.8169517517089844,1.2317841053009033,2.010039806365967,-0.9354297518730164,0.933824896812439,0.19420994818210602,-0.9568957090377808,1.0804146528244019,-1.6274685859680176,1.7261943817138672,0.995302677154541,1.5678493976593018,-1.2590467929840088,-0.9040858149528503,-1.0332087278366089,-0.5589873790740967,-1.6843509674072266,-1.5460258722305298,-0.903664231300354,-1.60525643825531,1.8860243558883667,-0.7789961099624634,-1.023066759109497,-1.06126868724823,0.21570630371570587,0.8945159912109375,0.061271388083696365,0.742167055606842,-0.6775364279747009,1.0232250690460205,0.6279993653297424,-0.473999559879303,0.041281867772340775,-1.1955235004425049,0.8018354773521423,-0.5695919394493103,-1.498208999633789,0.0791316032409668,-0.4067504405975342,-0.02302197366952896,-0.8585110902786255,-0.7201091647148132,-0.6868616938591003,-0.08821436762809753,0.037839338183403015,-1.1237961053848267,0.3226962983608246,0.46473968029022217,0.28494662046432495,0.2842007875442505,-0.5490029454231262,0.8160858154296875,0.3416350185871124,-0.027019785717129707,0.7410485744476318,-1.0544759035110474,-2.3110616207122803,-0.11303600668907166,-0.6454477310180664,-0.060199856758117676,-0.4198869466781616,-1.276506781578064,1.4671988487243652,0.9156184792518616,1.0475820302963257,-1.3712213039398193,0.45639458298683167,1.2756818532943726,-0.8408938646316528,1.269706130027771,-1.3704570531845093,-0.17363424599170685,0.5740295052528381,0.10983260720968246,-0.6248674392700195,-1.3047794103622437,-0.5854936242103577,-0.8018395304679871,-0.4541129767894745,-0.7139432430267334,-2.2361361980438232,1.1275134086608887,-0.35331034660339355,-2.225712776184082,-1.6856940984725952,-0.7238735556602478,1.2931993007659912,0.2489824891090393,0.18455363810062408,0.07313554733991623,-0.3819930851459503,0.10825879871845245,0.5142361521720886,0.7751166224479675,-1.466657280921936,-0.9310122728347778,0.5665522813796997,-0.4390144944190979,-0.11896006762981415,0.7246947884559631,-0.19295907020568848,1.012081265449524,-0.17010539770126343,-0.7360715270042419,-0.24222560226917267,0.3496071398258209,0.8577108383178711,0.34669819474220276,0.705681562423706,-0.36337757110595703,-0.3923446536064148,-0.08886338770389557,-0.47125476598739624,-0.2914219796657562,0.24062207341194153,0.6772267818450928,-1.1765490770339966,-0.003332101972773671,-1.3746342658996582,0.8321711421012878,-0.5433790683746338,-0.2906267046928406,0.9264940023422241,0.015252025797963142,1.0483994483947754,0.42873433232307434,0.16298982501029968,-0.5493257641792297,0.13236117362976074,-0.05163053423166275,-0.4967614710330963,0.6663943529129028,-0.6766431927680969,0.37340256571769714,0.22527198493480682,0.4400244355201721,-0.7202789187431335,0.03662220761179924,-0.6351357102394104,0.473958820104599,-0.9388251900672913,-1.5456392765045166,-1.1437939405441284,-0.6671615242958069,0.38561195135116577,-0.7218359708786011,-0.5257629752159119,-1.006564736366272,-0.4978609085083008,-0.44994914531707764,-2.2917661666870117,1.3176774978637695,1.9240459203720093,-1.5206378698349,-0.9687679409980774,-1.3843538761138916,-1.3630670309066772,-0.9766576886177063,1.53444504737854,-2.0286176204681396,0.11114658415317535,1.7804027795791626,-0.8409080505371094,0.4193701148033142,-1.4374961853027344,-3.2111876010894775,-3.2871975898742676,0.8077490925788879,1.7961156368255615,1.5223581790924072,-0.7101000547409058,1.8531605005264282,0.9914771318435669,0.44655588269233704,1.8090907335281372,-1.1835335493087769,2.355370044708252,1.398822546005249,1.8976894617080688,0.2358340173959732,0.5024657845497131,1.1048808097839355,-0.03554752096533775,-0.41120219230651855,0.423593133687973,0.18142971396446228,-0.18769527971744537,0.3434174358844757,1.295068621635437,0.01552546489983797,0.047130949795246124,-0.20010699331760406,0.1515960842370987,-0.00933826807886362,-0.30932116508483887,0.6447857022285461,0.2688159942626953,0.05476662889122963,-0.1593758761882782,-0.14244185388088226,0.4551602900028229,0.33186522126197815,-0.32071611285209656,-0.23271091282367706,0.3635615110397339,-0.8309847116470337,0.4730563461780548,-0.24646811187267303,-0.2241709977388382,0.04401140287518501,-0.2795020341873169,3.8907859325408936,0.38947364687919617,-0.07713274657726288,-1.1725084781646729,0.5769621133804321,-0.8605351448059082,-4.694341659545898,0.8574339151382446,0.6831252574920654,2.3728885650634766,-0.5770406723022461,-1.7072972059249878,-0.27036985754966736,-2.3519794940948486,0.9150327444076538,1.6936362981796265,-1.0178250074386597,-0.1611165702342987,-0.3773326277732849,0.8801581859588623,1.1598306894302368,-2.114694595336914,-0.668341338634491,1.6406928300857544,6.9214630126953125,-0.9742311239242554,0.37065964937210083,4.397308349609375,2.3525118827819824,4.318428993225098,1.4458849430084229,0.184884175658226,1.8073407411575317,-0.47009503841400146,-0.5540300011634827,0.7523207068443298,1.1176509857177734,0.25598955154418945,-1.4516297578811646,-0.06472475081682205,0.05135072395205498,-0.06619526445865631,-0.14564478397369385,0.7580215334892273,-0.1416502743959427,1.080243468284607,0.4118952751159668,-0.0577145479619503,0.5390645265579224,0.38132867217063904,1.257997989654541,1.3943626880645752,2.1759705543518066,-0.7173792123794556,-0.610264241695404,-0.09565840661525726,-1.362884759902954,0.4427609145641327,1.4365464448928833,1.0920617580413818,-0.7681623101234436,-1.3762428760528564,-0.8946226239204407,-1.2595351934432983,-0.7986727952957153,1.1724379062652588,-0.5131061673164368,-2.007472038269043,0.6520004272460938,0.28632792830467224,-0.3073175549507141,-0.8149482011795044,-0.021475449204444885,1.9842290878295898,-1.0746269226074219,0.35278114676475525,-0.6737611889839172,-0.009809831157326698,1.2873258590698242,0.29914480447769165,-0.7202641367912292,-1.4450316429138184,-0.9270142316818237,-1.6292647123336792,1.2240016460418701,0.8691050410270691,-0.8675763010978699,1.094292163848877,-0.9211214780807495,-2.141126871109009,-1.3337998390197754,-0.7095415592193604,0.22256560623645782,0.544042706489563,-1.0260003805160522,0.5722432136535645,0.13848111033439636,-2.0239944458007813,0.72318035364151,-0.1300433874130249,-0.10324659943580627,-0.8280803561210632,0.269322007894516,-0.14570052921772003,-0.151353120803833,-0.06840914487838745,-0.1331392228603363,0.3410174250602722,-0.5686426162719727,0.25174012780189514,-0.21251089870929718,0.15173590183258057,0.7904055118560791,-0.07460824400186539,0.29033350944519043,0.025815913453698158,0.3884965181350708,0.2751525938510895,0.7427843809127808,-1.9290645122528076,0.06989940255880356,0.1070740595459938,0.18563096225261688,0.03257717192173004,0.3532085716724396,0.4255732297897339,0.27583521604537964,0.07585569471120834,0.4729822874069214,-0.022662479430437088,-0.9227860569953918,-0.1280072182416916,-0.22307036817073822,0.3740857243537903,-0.3804158568382263,-0.3620193302631378,0.31256046891212463,-0.17005614936351776,0.16136878728866577,-0.16587918996810913,-0.5519860982894897,-0.3229637145996094,0.25378215312957764,0.24741342663764954,0.2915073037147522,-0.09818161278963089,0.33267343044281006,0.767768383026123,0.7891550064086914,0.15859045088291168,0.7785772681236267,1.2927318811416626,0.45289283990859985,0.5791897177696228,0.15906693041324615,0.6266583800315857,-1.2712156772613525,-1.5104527473449707,0.7642297744750977,-2.1152985095977783,-1.1055139303207397,-0.2938964068889618,-0.23129147291183472,-0.13715092837810516,0.08655678480863571,-0.2009277194738388,0.45973703265190125,-0.7089637517929077,-0.16862307488918304,0.43105554580688477,1.7431600093841553,0.4359772503376007,1.4767602682113647,0.43236997723579407,0.5038371086120605,-0.5894767045974731,-1.0530599355697632,1.2440683841705322,1.756579875946045,0.7412726283073425,0.013855808414518833,-2.149729013442993,1.0816588401794434,1.3918030261993408,-0.3255758285522461,0.015175399370491505,-0.36614587903022766,1.9380617141723633,-0.3611260652542114,-1.439927577972412,2.104450225830078,-0.692751944065094,1.1427196264266968,0.9870923757553101,0.2710575759410858,0.9034930467605591,-0.1371879130601883,0.25378385186195374,0.09205380827188492,0.5777794718742371,-0.49685487151145935,0.18376173079013824,-0.13902465999126434,-0.30013957619667053,-0.7652466297149658,0.04765764996409416,-0.8153859972953796,0.23708124458789825,-1.5638014078140259,-2.0502378940582275,-1.365209937095642,-0.022721318528056145,2.3779852390289307,0.5781466364860535,-0.13213017582893372,-1.518337607383728,-0.6814776062965393,0.5984681844711304,-3.058555841445923,-0.8808998465538025,3.7316763401031494,-3.084318161010742,-1.1967765092849731,-0.5084807276725769,1.1229621171951294,-2.969970941543579,0.9539803266525269,0.930945634841919,1.5345524549484253,-0.7043817043304443,-1.2862944602966309,3.1013612747192383,1.2310237884521484,1.169920802116394,0.6707826852798462,-1.9020462036132813,-0.23432299494743347,-0.30648380517959595,-1.2532352209091187,0.5858738422393799,-1.3987311124801636,0.575417697429657,3.6459310054779053,-2.987534761428833,-0.8712558150291443,-0.5564847588539124,-1.5578685998916626,2.5028936862945557,7.964427471160889,-1.5067462921142578,5.569538116455078,-1.590764045715332,-1.9775651693344116,1.745134711265564,-4.584452152252197,-3.5397868156433105,-3.348393678665161,4.846877098083496,-4.634799957275391,-3.010765790939331,5.629112720489502,-3.982558012008667,9.377543449401855,-0.5619689226150513,4.929841041564941,-4.045958518981934,3.2516379356384277,3.2135894298553467,3.22955322265625,1.0268901586532593,-0.5666182637214661,5.895022392272949,4.471983909606934,1.9981569051742554,-0.7077676653862,2.939823865890503,0.7305446863174438,10.187963485717773,0.632032036781311,0.08027011901140213,0.24025271832942963,-1.0543572902679443,-1.8733307123184204,0.46516746282577515,0.84376060962677,2.5362157821655273,1.070458173751831,1.9545683860778809,0.5792527794837952,0.19039547443389893,-0.5864028930664063,0.9093472361564636,0.9516072273254395,-1.5655115842819214,1.5274652242660522,-0.4654659926891327,1.1256176233291626,-0.28192487359046936,0.475472092628479,-0.3194541037082672,0.9546297788619995,-3.5536322593688965,-3.454099178314209,-1.190720558166504,0.258317768573761,1.035751461982727,1.0134341716766357,-0.18224872648715973,-2.212843656539917,-0.035705823451280594,2.3148818016052246,-4.088803291320801,-0.8099566698074341,-0.16471436619758606,-4.550084590911865,-0.03365200757980347,-1.2445659637451172,-1.1678026914596558,-3.733942985534668,-0.6956953406333923,0.8479709625244141,1.714036226272583,-0.3797365427017212,-0.27122771739959717,1.0298500061035156,-0.5482649207115173,1.9809277057647705,1.4330042600631714,0.09584136307239532,-0.3693865239620209,-0.7139224410057068,-0.9192221760749817,1.3419705629348755,2.7352871894836426,1.9964804649353027,2.7917051315307617,-3.8206865787506104,-0.30145058035850525,-0.5149494409561157,0.6474609375,-2.035494089126587,-3.528165578842163,2.293383836746216,2.282217264175415,-3.534682035446167,4.3011369705200195,0.20580673217773438,2.8367605209350586,-1.1172257661819458,-1.1224039793014526,-3.6407463550567627,-2.127139091491699,-0.24262650310993195,-4.120254039764404,3.072946548461914,-3.6198220252990723,-1.549268364906311,-2.334540605545044,-2.271867275238037,-3.3386502265930176,1.5522050857543945,-6.403506278991699,0.4313482940196991,-2.6131861209869385,-1.7989164590835571,-2.4087138175964355,-3.01914119720459,3.8321328163146973,-3.929403781890869,-3.2473766803741455,-3.225280284881592,-0.019945144653320313,-5.25636100769043,1.3581346273422241,2.749459981918335,0.279464453458786,1.6145142316818237,0.34811073541641235,4.892857074737549,-2.742089033126831,-2.2846932411193848,-3.201514720916748,-1.5196466445922852,1.8355203866958618,-4.044369697570801,2.7632362842559814,2.258237838745117,-3.068430185317993,-1.96511709690094,-3.048809289932251,0.004441321827471256,1.6719311475753784,-4.483506202697754,2.0082859992980957,-1.5065001249313354,-4.412045955657959,-4.400082111358643,-0.9716877341270447,0.6113552451133728,-2.733140468597412,-5.9625020027160645,-7.223556041717529,-2.096729278564453,-3.162100315093994,2.421719789505005,1.303031325340271,-1.413739800453186,-1.560092806816101,-0.6995601654052734,1.4466880559921265,2.3040783405303955,6.479306697845459,-2.0563902854919434,-1.170332431793213,3.158479690551758,-3.790062189102173,1.8426055908203125,-3.52138090133667,1.949902057647705,4.698655605316162,-0.8815635442733765,-5.185892581939697,1.4245740175247192,-2.313081979751587,0.1566198766231537,-1.7669625282287598,-2.9127957820892334,-2.3313446044921875,-0.25658008456230164,-4.179863929748535,-1.9794089794158936,-2.063690185546875,-3.319486379623413,2.551312208175659,-1.841945767402649,0.4433266520500183,6.478920936584473,0.18200786411762238,-1.74315345287323,1.5226303339004517,1.3072620630264282,-0.3588199317455292,-0.878974974155426,-0.28136661648750305,-3.325601577758789,-1.189495325088501,1.2913472652435303,0.1688702553510666,-0.22917057573795319,-4.765429973602295,-3.7749907970428467,-4.912574291229248,1.0453635454177856,4.781621932983398,-0.5922725796699524,3.6395506858825684,-0.7875598669052124,-2.6655056476593018,-1.7266677618026733,-0.7188280820846558,-2.5609383583068848,0.21683336794376373,-0.7392081022262573,-0.9120221734046936,-1.8295674324035645,-2.381244421005249,2.664229154586792,-2.265610456466675,-2.4203145503997803,2.658747911453247,-2.028064012527466,2.4758660793304443,2.1986892223358154,2.596445322036743,-2.4991514682769775,1.9513916969299316,2.0132360458374023,-2.0171892642974854,2.3792612552642822,-2.541956663131714,2.3241894245147705,1.8891059160232544,2.1793479919433594,-2.186490774154663,-2.051757335662842,-2.0064330101013184,-1.9635790586471558,-2.4745147228240967,-2.6482138633728027,-2.391605854034424,-2.9854094982147217,2.58236026763916,-2.3556063175201416,-2.5234780311584473,-2.317164421081543,-4.170257091522217,-2.04162335395813,-0.8289726972579956,-4.1282267570495605,0.18721555173397064,0.251013845205307,-4.867708206176758,0.7110608220100403,-0.2772347331047058,-0.33426886796951294,0.08498448878526688,4.313461780548096,5.209266662597656,-4.528438568115234,0.05593593791127205,0.1685890406370163,0.9200118184089661,4.3771796226501465,1.1290704011917114,-1.272709846496582,-4.907543182373047,-2.630805253982544,-4.318334579467773,-0.3628227710723877,-1.417125940322876,-1.3959176540374756,0.6134961843490601,-0.14264798164367676,-4.95388650894165,-0.534101128578186,-5.345792293548584,-0.6792290806770325,0.793254017829895,0.09109005331993103,-0.08611460775136948,-1.66696298122406,0.0027761596720665693,0.9624071717262268,-0.6710975170135498,-0.14555330574512482,0.5626735687255859,-0.6062185168266296,0.47528156638145447,-1.119935393333435,0.49791961908340454,-0.3305608332157135,0.1671881228685379,0.9087867736816406,0.32841798663139343,1.7627571821212769,0.6392619013786316,-0.5406076312065125,0.7087477445602417,-1.6649657487869263,-1.0611566305160522,0.5397965312004089,1.8076026439666748,-2.033726215362549,0.04133561998605728,0.20335376262664795,0.6084018349647522,1.7263696193695068,0.5977833867073059,0.6581774353981018,-1.1056159734725952,0.9775733351707458,-0.058122605085372925,-1.4150205850601196,1.1809520721435547,0.03455227613449097,0.19264507293701172,0.009967794641852379,0.37612274289131165,-0.16791623830795288,-1.2713426351547241,0.2915438413619995,-0.2669083774089813,-0.23781098425388336,-1.6186059713363647,-0.6509707570075989,-0.7027333974838257,0.5109957456588745,0.5147282481193542,0.12644270062446594,0.8032089471817017,-0.3138207197189331,-0.2362617552280426,-0.017220115289092064,0.546367347240448,-1.3098610639572144,0.3248019218444824,0.7275082468986511,1.2706365585327148,0.0382065549492836,-0.052430346608161926,-0.006889172829687595,-0.06900350004434586,-0.00009630351269152015,-0.05591524764895439,-0.07748332619667053,-0.0407782718539238,-0.04575299844145775,-0.0064271739684045315,-0.024626657366752625,0.021907541900873184,0.053455695509910583,-0.04367075487971306,-0.03667517006397247,-0.029865901917219162,0.07190924882888794,-0.031463515013456345,0.023595260456204414,-0.0025514215230941772,0.010463600046932697,-0.007632719352841377,-0.06922978162765503,-0.015734490007162094,-0.05872241035103798,-0.003399169771000743,0.06598862260580063,-0.008512703701853752,0.07653775811195374,0.022792793810367584,-0.0014753539580851793]},"hiddenLayers":[{"inputMatrix":{"rows":20,"columns":31,"weights":[-0.4075404703617096,-0.3292224705219269,-1.203405499458313,0.13131409883499146,1.247377634048462,-1.7579818964004517,-0.14381898939609528,-0.04946832358837128,0.3800061345100403,0.018827343359589577,-0.5982787609100342,0.4665738642215729,0.5152854323387146,0.08997792750597,0.4386410415172577,-0.32518190145492554,0.03466444090008736,0.4256569445133209,0.02063659392297268,0.49984797835350037,-0.27702057361602783,0.28897231817245483,-0.2284974604845047,0.37363341450691223,0.3521832227706909,0.027536675333976746,1.733865737915039,-1.2376755475997925,-0.3879222571849823,-0.38751643896102905,0.2974156439304352,-0.9592304825782776,-1.5364990234375,-1.1007699966430664,-0.2481820285320282,1.0878145694732666,-0.49839749932289124,-1.0519877672195435,-0.5064087510108948,0.43976324796676636,0.5873204469680786,-0.33366021513938904,0.36876240372657776,1.0902838706970215,0.3386082649230957,-0.06775982677936554,-0.24173332750797272,-0.15100201964378357,-0.2882172167301178,-0.07293462753295898,-0.13374488055706024,-0.7236624360084534,0.49117201566696167,-0.989762008190155,0.4688018262386322,-0.6418212056159973,-0.6003798246383667,1.6760411262512207,-0.4180447459220886,-0.4112470746040344,-0.42450952529907227,0.32332032918930054,-0.10212927311658859,0.7498512268066406,-0.7352708578109741,0.8980978727340698,0.37598276138305664,-0.2668921649456024,0.3207223415374756,-0.729141354560852,0.2680880129337311,-1.315635323524475,1.1418163776397705,-0.08857893198728561,-0.5968520045280457,0.37021368741989136,-1.0271553993225098,1.4790865182876587,-1.003013014793396,-0.8256050944328308,-1.3789457082748413,-0.6659520268440247,0.46223577857017517,0.9889088273048401,-0.08860209584236145,-0.4499785602092743,-0.07471900433301926,0.7257905602455139,1.2661200761795044,-0.24284052848815918,0.16388936340808868,0.11617813259363174,0.8435690402984619,0.8720588088035583,0.11076688021421432,-1.0950807332992554,0.7735026478767395,0.8228932619094849,-1.1427490711212158,0.8010036945343018,0.036258798092603683,-1.5513805150985718,-1.678977131843567,0.9868528842926025,-0.4155432879924774,0.17690208554267883,0.7335764765739441,-0.594028651714325,1.8234367370605469,-0.726937472820282,-0.41175708174705505,-0.7310736179351807,0.6532465219497681,0.8408069014549255,0.24328838288784027,0.8886011242866516,0.6452170014381409,-0.4224998354911804,-0.3001323938369751,0.9908571839332581,-1.3309593200683594,-0.18197312951087952,0.49316340684890747,-0.4513470530509949,1.7494795322418213,1.1797515153884888,0.32194584608078003,0.06349456310272217,-0.730577826499939,-0.48644664883613586,0.5002309083938599,0.6274765729904175,-0.38416460156440735,0.23977743089199066,0.6921626329421997,-1.5947811603546143,-1.7580432891845703,-0.0105083417147398,0.26215776801109314,-0.16529454290866852,0.5003482103347778,-0.6419789791107178,-0.6771154403686523,0.28531184792518616,1.4663007259368896,0.2133921980857849,1.4395822286605835,-0.4479624629020691,-0.18922938406467438,0.053423069417476654,0.027167456224560738,-0.37224918603897095,1.950839877128601,1.3086978197097778,0.03504852205514908,-1.0970478057861328,-0.7101916074752808,-0.26570841670036316,-0.025316225364804268,-0.3886025846004486,-0.02973948046565056,-0.4394475817680359,0.7054495811462402,1.0824915170669556,0.7150813937187195,-0.6606114506721497,0.6277663111686707,0.003907226957380772,-0.6479781270027161,0.817119836807251,-0.8336765766143799,0.3018185496330261,0.23900413513183594,0.4632987678050995,-0.5596251487731934,-1.0509847402572632,-0.7496199011802673,-1.1872085332870483,-0.672240674495697,-0.7146676182746887,-0.44375693798065186,-0.4037921130657196,0.012398185208439827,-0.7742438316345215,-0.654516875743866,-0.03062354028224945,-0.29589349031448364,-0.7382780313491821,-0.015741189941763878,0.43531131744384766,-0.6290825605392456,0.06730620563030243,0.0777503028512001,1.0131641626358032,0.8537185192108154,0.7023054361343384,-0.7720840573310852,-0.06802666187286377,-0.2876754701137543,-0.3268955647945404,0.96059650182724,-0.9770452380180359,-0.12568415701389313,-0.15646269917488098,0.06605163216590881,-0.3727432191371918,-0.058783650398254395,-0.8110359907150269,0.08989765495061874,-1.2038289308547974,-1.8091789484024048,-1.02222740650177,-0.29786309599876404,-0.5577771663665771,-0.3360864818096161,-0.851626455783844,-0.9584519267082214,-0.30229058861732483,-1.0363812446594238,-0.09400484710931778,0.17058560252189636,0.9494285583496094,-0.32631707191467285,-0.5109010934829712,0.045258115977048874,0.5452086329460144,0.7091081738471985,-0.02021018974483013,-0.37869808077812195,0.6513873338699341,0.023768795654177666,-0.09018753468990326,-0.1730135977268219,-0.09545309841632843,-0.307752400636673,-0.652121901512146,-0.5208110213279724,0.14929217100143433,0.2337820678949356,0.05946173518896103,0.2508454918861389,-0.764600396156311,-0.7000560760498047,1.0495598316192627,-0.3685001730918884,-0.47050416469573975,-0.46252933144569397,-0.5103068351745605,-0.39382827281951904,0.7595438361167908,-0.7423846125602722,-0.6705947518348694,-0.0002581425942480564,-1.3669501543045044,-0.1702052503824234,0.8378134965896606,0.4418272376060486,-0.07334193587303162,-0.8425554037094116,0.665375828742981,0.3103189170360565,-1.0747605562210083,0.9716410040855408,-0.5491316318511963,0.5019018650054932,0.9201580882072449,0.8661593794822693,-0.08270597457885742,-0.38305217027664185,-1.044430136680603,-0.4573879539966583,-0.026366909965872765,0.47747448086738586,-0.00038679447607137263,0.3736627697944641,-1.0753885507583618,-0.6223493218421936,-0.1906272917985916,-0.21326948702335358,-0.5821017026901245,-0.7109014391899109,0.5157704949378967,-0.21684296429157257,-0.6129898428916931,0.622014582157135,-0.18756307661533356,0.37728267908096313,0.7687914967536926,1.1780191659927368,-0.7115150690078735,0.5393275618553162,0.06022711843252182,-0.20943960547447205,0.4755719304084778,-0.9673137664794922,0.6689435243606567,0.5414137840270996,0.5030836462974548,-0.6819313764572144,-0.8583104610443115,-0.04305156692862511,-0.5840688943862915,-0.7776137590408325,-0.8821501135826111,-0.5466355085372925,-1.3442952632904053,0.5899076461791992,-0.6728941798210144,-0.6616598963737488,-0.5092775225639343,-0.6475818157196045,0.2084222286939621,-0.9191685914993286,1.293487787246704,0.9807730913162231,-0.9307018518447876,0.16576515138149261,-0.4812270402908325,-0.3053218722343445,-0.7580713033676147,0.2468176782131195,0.12067127972841263,0.7332729697227478,0.7024729251861572,-0.34413328766822815,0.9670150876045227,-0.9637842774391174,0.4798223078250885,-1.0466341972351074,0.05530134215950966,-0.30216410756111145,0.6482568383216858,0.15807956457138062,0.21908168494701385,0.4425550401210785,0.18672910332679749,2.5946459770202637,-0.36250412464141846,-0.3119308054447174,-0.5639896988868713,0.6695083379745483,0.9260091185569763,0.693681538105011,0.36920425295829773,0.9916125535964966,-0.3008720874786377,0.33168062567710876,1.1747541427612305,-0.18217124044895172,-0.3279680907726288,0.0922512486577034,1.1794922351837158,-0.899886429309845,-1.5758235454559326,0.7822681069374084,-0.6527327299118042,0.7261311411857605,-0.4075463116168976,-1.0000931024551392,-0.9680896997451782,0.7475913166999817,1.1603775024414063,0.7131621837615967,1.2941646575927734,-0.3300105333328247,0.2851504385471344,0.4284609258174896,-0.6304731965065002,0.14677637815475464,1.338184118270874,1.2174832820892334,0.48594874143600464,0.6651847958564758,0.7272543907165527,-0.8481616973876953,1.0407065153121948,-0.6774287819862366,-1.1523139476776123,0.7846300005912781,0.19379404187202454,-0.3770311176776886,0.29483169317245483,0.29406172037124634,-0.7327390909194946,-0.8454568386077881,0.9601876735687256,0.10873614251613617,-0.1930488646030426,-0.6192687153816223,-0.9037196636199951,-0.6418202519416809,0.7801344990730286,0.696563184261322,0.0926097109913826,0.1900826245546341,-0.6418411731719971,-0.32301172614097595,0.125189408659935,0.2547420263290405,-0.8697455525398254,0.6401846408843994,0.26055628061294556,0.15129214525222778,0.7853164076805115,0.7793895602226257,-1.2134592533111572,0.07389865070581436,0.3533771336078644,-1.1973193883895874,0.5299057960510254,-0.18216486275196075,-1.1854064464569092,-1.0972483158111572,0.9765846729278564,-0.2807197868824005,-0.07214436680078506,0.35671085119247437,-0.9200406074523926,1.828953504562378,-0.17427629232406616,-0.6831964254379272,-0.8357304930686951,-0.09600719809532166,1.2334481477737427,0.40641406178474426,0.3566790819168091,-0.20724113285541534,-0.02345682866871357,0.6902883052825928,0.6669517159461975,-1.5311774015426636,0.2875235974788666,0.43473556637763977,-0.3904239535331726,0.41986867785453796,0.46000969409942627,0.7833001613616943,-0.42511823773384094,-0.9545897841453552,0.6158961653709412,0.4309413433074951,-0.6415188312530518,0.7434285879135132,0.9525672197341919,0.17915098369121552,-0.05424179136753082,-1.2938017845153809,0.4630585312843323,-0.0946345180273056,-0.7150086760520935,0.7486521601676941,-0.06025414168834686,0.6918336153030396,0.0982562005519867,0.2590276896953583,0.23720280826091766,0.15795250236988068,-0.49754825234413147,-0.024553969502449036,0.5409858822822571,-1.2868069410324097,0.7909846901893616,1.0649499893188477,0.8661017417907715,0.985995352268219,-0.5630254745483398,-0.33285051584243774,0.8495879769325256,0.08379658311605453,-0.2983732223510742,1.2483413219451904,-0.4802108407020569,0.1644156128168106,0.8383487462997437,1.3201487064361572,-0.7023038268089294,0.19195860624313354,0.39279496669769287,-0.5795264840126038,0.4538494050502777,-1.361401915550232,0.31033051013946533,0.2787780165672302,-0.14736029505729675,-0.7295308709144592,-1.0570670366287231,-0.45145803689956665,-0.07489210367202759,0.18714115023612976,-0.46830812096595764,-0.6747164130210876,-0.727810800075531,1.1869547367095947,-1.1812282800674438,-1.1733653545379639,-0.19082842767238617,0.3542638421058655,-0.22157980501651764,-0.7271326780319214,0.8658905625343323,0.6148825287818909,-0.7897252440452576,0.47167840600013733,0.1219782829284668,-0.44279032945632935,-1.1392015218734741,0.32475587725639343,-0.6131616830825806,-0.16938625276088715,0.3994010388851166,-0.11044775694608688,0.3711100220680237,-1.340358853340149,-0.6503586173057556,-1.0828367471694946,0.6153427958488464,0.5185996890068054,-0.07877615839242935,0.45703667402267456,0.4917668402194977,0.1949317753314972,-0.4613848030567169,1.2861014604568481,-0.5363606214523315,-0.062289297580718994,-0.06434493511915207,-0.11266960203647614,-0.46487414836883545,0.7165124416351318,0.19162313640117645,0.25456395745277405,-0.9468604326248169,0.2220630645751953,0.4286782741546631,0.18635252118110657,0.9704524278640747,0.8048769235610962,-0.5038923025131226,0.21761196851730347,-1.0193578004837036,-0.290060430765152,0.4167093336582184,-0.951373279094696,0.3115169405937195,-0.10306749492883682,0.5032065510749817,-0.0015181336784735322,-0.9196538329124451,-0.5525688529014587,-0.5799740552902222,-0.7680182456970215,-0.1857263445854187,0.4094453752040863,-1.1602798700332642,0.011739036999642849,-0.39998960494995117,-0.29635384678840637,0.8642048239707947,0.17797216773033142,0.8926095962524414,-1.1536659002304077,-0.3306255638599396,0.9684632420539856,-1.1522282361984253,0.40810626745224,-1.1489194631576538,0.7025352120399475,0.5333333015441895,0.22472161054611206,0.12651942670345306,-0.41480645537376404,0.4032386243343353,-0.4680889844894409,0.29037556052207947,0.5017375349998474,0.11562038958072662,0.4769096374511719,0.27381157875061035,0.26848646998405457,1.016045093536377,0.016720861196517944,0.5056002140045166,0.745304524898529,0.9401885867118835,0.7371180653572083,-0.8453975915908813,0.8841888308525085,0.4636302888393402,1.5415081977844238,-1.3296698331832886,-0.6939388513565063,-0.44988226890563965,-0.246270552277565,-0.567499577999115,-0.4780109226703644,-0.4209471344947815,0.7774074673652649,0.6785974502563477,0.34300363063812256,-0.8356530666351318,0.31249478459358215,0.36722901463508606,-0.7220191359519958,0.6888247728347778,-0.6400033831596375,0.4151284396648407,0.09489946067333221,0.8398426175117493,-0.35632285475730896,-0.8377003073692322,-0.6424679756164551,-1.3143739700317383,-0.766411542892456,-0.5172227621078491,-0.38449010252952576,0.1451398730278015,-0.4195364713668823,-0.3222673237323761,-0.2512308955192566,-0.16482938826084137]},"inputHidden":{"rows":20,"columns":20,"weights":[-0.0955347865819931,-0.12147935479879379,0.3230682611465454,0.06417876482009888,-0.3684298098087311,-0.36685407161712646,-0.5838310122489929,0.16636356711387634,-0.3206808567047119,0.589891791343689,0.3193797171115875,-0.4714741110801697,-0.5922049880027771,-0.5808018445968628,0.1289650946855545,-0.46205219626426697,0.29419025778770447,-0.028364544734358788,-0.15340600907802582,0.0016456665471196175,-1.0635467767715454,-0.5512836575508118,-0.41280800104141235,-1.0804967880249023,0.9904630184173584,-1.7379928827285767,-1.3880561590194702,-0.3438708484172821,-0.5066800117492676,-1.3172805309295654,0.12695345282554626,-1.5670316219329834,-1.1525145769119263,-1.0126389265060425,-1.0525301694869995,-0.7807653546333313,0.9481796026229858,-1.1020078659057617,-0.17829516530036926,-0.9836965799331665,-0.9042390584945679,-1.021975040435791,-1.4168455600738525,1.4525299072265625,-0.2054966688156128,0.5045204758644104,0.37949275970458984,-1.5332939624786377,-1.5195053815841675,0.7101011276245117,1.1435539722442627,0.3309536278247833,-0.7331793904304504,-1.4035179615020752,1.2425626516342163,0.703769862651825,1.0541366338729858,-1.4922484159469604,-1.387021541595459,0.3544769585132599,-2.018550395965576,-0.6011821031570435,0.35176873207092285,0.13344739377498627,1.5341514348983765,-0.7566676139831543,-0.5002989172935486,-0.6095948219299316,-0.12790383398532867,-0.2950974702835083,0.9859122633934021,-1.6544443368911743,0.04152275249361992,-0.9780040383338928,-0.5250593423843384,0.023981714621186256,1.1312661170959473,-1.5300348997116089,-0.7243956327438354,0.5829533338546753,-0.780807375907898,-0.054715875536203384,-0.9150893688201904,0.950070321559906,1.1231147050857544,-0.4263591766357422,-1.433188557624817,0.1437961459159851,-0.004716493654996157,1.4360547065734863,0.4490724205970764,0.5925721526145935,-0.6802460551261902,-1.3693406581878662,0.0019053012365475297,-0.6023972034454346,0.6376177072525024,0.952737033367157,-0.6425911784172058,-0.8008126616477966,0.07403701543807983,-1.81428062915802,1.6239172220230103,1.5391809940338135,-0.8239559531211853,-0.5290119051933289,-0.3040210008621216,-1.531013011932373,-0.8989704847335815,-0.7258672118186951,-0.5217272043228149,0.5119971036911011,-0.19271546602249146,0.4705860912799835,-0.3636115789413452,-0.8405617475509644,0.5390401482582092,0.19194352626800537,-1.3622610569000244,0.2901768982410431,-0.11979766935110092,0.6737862825393677,-2.1256654262542725,1.1704024076461792,-1.5457277297973633,-1.210411787033081,-0.962542712688446,0.21635790169239044,0.23881709575653076,-1.4998455047607422,-0.23737385869026184,-0.30426913499832153,1.2263193130493164,1.2394427061080933,-2.5748257637023926,-2.795015335083008,-0.9497355222702026,-0.13677655160427094,1.0509008169174194,-1.1502035856246948,-0.354523628950119,0.8620148301124573,2.247792959213257,-0.9862666726112366,-0.3630046844482422,-2.389464855194092,-2.393317461013794,1.3005470037460327,0.22696755826473236,-0.8901563882827759,-0.08376330137252808,-0.4814539849758148,0.7926912903785706,-0.704602837562561,-1.6472949981689453,-1.6317414045333862,0.4651075303554535,-0.31503984332084656,0.5559765100479126,-2.0877630710601807,-1.075089454650879,0.8886390924453735,0.5007874965667725,-1.7584818601608276,-0.28033968806266785,0.7608886957168579,-1.3859683275222778,1.4657238721847534,0.5968669056892395,1.2982361316680908,-0.5899702310562134,0.2713727355003357,0.3149259090423584,0.7916815280914307,1.2047384977340698,0.47556182742118835,0.5234827995300293,0.9943335652351379,0.6268365383148193,0.529865026473999,0.2417740523815155,-0.7292174696922302,0.33129245042800903,0.3489679992198944,-0.35455188155174255,0.19766637682914734,-0.05933946743607521,0.3175550401210785,-0.056634992361068726,-0.37992000579833984,-0.264225035905838,0.802426278591156,0.31467190384864807,0.12361156195402145,-0.1993088275194168,0.06977234035730362,-0.33747372031211853,-0.31587669253349304,-0.2034737467765808,0.14481467008590698,-2.3408641815185547,-1.0667434930801392,-0.4844716489315033,0.458913654088974,1.4011049270629883,0.6588319540023804,-1.7219113111495972,-0.6663051247596741,-1.0366536378860474,1.4591182470321655,0.6431773900985718,-0.6376556754112244,-1.7473567724227905,0.29503196477890015,0.5342282652854919,0.6296254992485046,1.3464258909225464,-0.6542286276817322,-0.9260450601577759,0.6511417031288147,-0.2318137288093567,-0.34737032651901245,2.928100347518921,0.13960357010364532,-0.3250965476036072,-0.8965427875518799,-0.6438188552856445,0.7059264183044434,-0.700025200843811,-0.3484809696674347,-0.742476761341095,0.3274725377559662,0.26708218455314636,-0.2117614448070526,-0.68265300989151,-0.6226366758346558,0.6979852318763733,-0.04051154479384422,0.9810762405395508,-0.24899552762508392,-0.675812304019928,0.7283421754837036,0.7838388681411743,-1.4278210401535034,-0.4532381594181061,1.784618854522705,-1.2464227676391602,1.7791767120361328,0.7426924109458923,1.4254412651062012,-1.3421623706817627,2.7876932621002197,-0.07849560678005219,-0.07729215174913406,1.2234946489334106,0.9859434962272644,-0.7757968902587891,0.7474013566970825,-0.9727170467376709,1.0886770486831665,0.7677249908447266,-1.8361573219299316,-0.8475214838981628,1.5078701972961426,0.02858525887131691,1.4914132356643677,0.4499344825744629,-0.7107740640640259,0.6919121742248535,0.2082495093345642,0.9424189329147339,0.588229775428772,1.5102970600128174,-0.9370407462120056,2.2411062717437744,1.1946628093719482,0.10787562280893326,1.8804526329040527,-1.3326880931854248,1.0218034982681274,0.21463173627853394,-0.5356510877609253,1.7276573181152344,0.06696895509958267,-1.018552541732788,-0.7515786290168762,-0.6274142861366272,0.7450160980224609,0.4903351962566376,-0.262302041053772,-0.3288128674030304,1.026856780052185,0.6908876299858093,0.08786521106958389,-0.35177507996559143,-0.6762921214103699,-0.6730453372001648,0.6182041168212891,-0.1085105836391449,-0.4978766441345215,1.0096184015274048,0.2934305667877197,0.9162982702255249,-1.2771847248077393,0.2931627929210663,0.19436025619506836,0.6135308146476746,1.1701935529708862,0.13786503672599792,0.6994179487228394,-0.9002181887626648,0.6604379415512085,0.066258005797863,0.017855539917945862,0.6393901109695435,0.8664783239364624,-0.41663867235183716,0.47673705220222473,0.0619649775326252,1.1716094017028809,-0.707457959651947,0.3200126588344574,0.5917049646377563,0.1830766648054123,1.151583194732666,0.910973846912384,-0.33541110157966614,2.6985363960266113,-1.2022310495376587,0.924064576625824,-0.7050743699073792,0.58488529920578,-2.1704883575439453,-1.8646663427352905,1.6850353479385376,0.8087444305419922,2.8503410816192627,1.2425553798675537,-0.4035053849220276,0.6060325503349304,-1.791033148765564,0.8940271735191345,-0.8220797181129456,-0.9261932373046875,2.709843873977661,1.7539076805114746,-1.0528583526611328,1.7051753997802734,-0.6026359796524048,3.3702235221862793,0.7347157001495361,0.09708739072084427,-4.713125228881836,-1.2851020097732544,1.2538450956344604,1.1704474687576294,1.2700403928756714,0.1587221473455429,0.08833485841751099,0.6915456056594849,-0.5116363167762756,0.47582775354385376,0.7416289448738098,0.0223062913864851,-0.6240693926811218,-0.14447930455207825,0.14092443883419037,0.775592029094696,-0.7405595779418945,0.3004918694496155,-0.3010077476501465,-1.3804088830947876,-0.5892423987388611,0.3343883156776428,0.01905710995197296,-0.31947964429855347,0.34615084528923035,0.1649320423603058,0.02857397496700287,0.11213270574808121,0.6260144114494324,-0.1993779093027115,0.9020124077796936,-1.709714412689209,-0.34145915508270264,-0.620136559009552,0.14551234245300293,0.27363261580467224,-0.8234902024269104,-0.3388535678386688,-0.08767040073871613,-0.44575363397598267,-0.5310445427894592,-0.1705792397260666,0.9052332639694214,-0.5974348187446594,1.1563295125961304,-0.5818827748298645,-3.073429584503174,0.07489495724439621]},"inputBias":{"rows":20,"columns":1,"weights":[-0.8896828293800354,-0.6325007081031799,-0.8045220375061035,-0.7108680605888367,-2.3998429775238037,-0.07492779195308685,-0.7691234350204468,-0.7094457149505615,-0.8876699209213257,0.1295839101076126,-0.9757528901100159,-0.8791182041168213,-0.8295133113861084,-0.8744685053825378,0.37223580479621887,0.5816443562507629,-0.946620762348175,-1.3937067985534668,-0.8564688563346863,-0.07431425899267197]},"forgetMatrix":{"rows":20,"columns":31,"weights":[-0.23750874400138855,0.973541796207428,-1.060563564300537,-0.597576379776001,1.2425305843353271,-0.957478940486908,-0.5410600900650024,-0.46635347604751587,-0.6149197816848755,-1.202194333076477,0.5522663593292236,-0.09834215044975281,0.3394427001476288,-0.44386550784111023,-0.46280035376548767,0.9332818984985352,0.49100565910339355,0.732057511806488,0.541627049446106,0.08728177100419998,-0.0276498980820179,-0.24609334766864777,-0.6927739977836609,1.2340553998947144,1.8451440334320068,1.10372793674469,0.4168696999549866,-0.8118508458137512,-0.13483695685863495,0.8465517163276672,-0.13844186067581177,-0.09427342563867569,0.2972439229488373,-1.246935248374939,-0.1556752771139145,1.1256117820739746,-0.6234819889068604,-0.4166087508201599,-1.0821194648742676,0.11751377582550049,-0.7053185701370239,0.7807581424713135,-0.421389639377594,1.0472307205200195,0.3609328866004944,-1.2075835466384888,0.6490336656570435,-0.41673630475997925,0.9067132472991943,-0.0390644446015358,0.013064051046967506,-0.6705851554870605,0.1052992045879364,-0.6309024691581726,1.488463282585144,0.2641228139400482,0.8316622376441956,0.8050979971885681,-1.1376889944076538,-0.389816552400589,-0.4086991548538208,-0.24125546216964722,0.4437834322452545,0.016447339206933975,-1.44976806640625,0.47129374742507935,1.6920487880706787,-1.4118353128433228,0.5693813562393188,0.8937540650367737,-0.3824378252029419,-1.2469098567962646,-0.36057978868484497,-0.9726614952087402,-0.21983791887760162,0.39911404252052307,0.1655159741640091,0.2508716285228729,-0.6862350106239319,-0.3237519860267639,-0.31516095995903015,0.3060709238052368,0.8570597767829895,0.2959420680999756,0.33467549085617065,1.4424960613250732,1.5643826723098755,-0.5583334565162659,0.9390227198600769,-1.7258830070495605,-0.33432090282440186,0.06549006700515747,-0.4283466339111328,-0.9699292182922363,-0.547960638999939,-0.42703378200531006,-0.4104970097541809,1.1731603145599365,0.43943196535110474,-0.7869329452514648,-0.3300372064113617,0.0800044983625412,-0.7407876253128052,0.168282151222229,1.0843851566314697,0.7836765646934509,0.18546979129314423,-0.35743406414985657,0.21053773164749146,0.176972433924675,0.5733585357666016,0.1677895337343216,-0.8210799098014832,-1.4006145000457764,-0.03710713982582092,-0.5871404409408569,0.11845065653324127,-0.07113701850175858,-0.22655482590198517,0.6982123255729675,0.3758927881717682,-1.43631911277771,-1.1316980123519897,-0.6249821186065674,0.2362777143716812,0.4547893702983856,-0.25682634115219116,-0.940148651599884,-0.6444088816642761,-0.40523573756217957,-0.14469467103481293,0.06738100200891495,-0.07618436217308044,0.9855985045433044,-1.7592378854751587,0.7147949934005737,0.8992782831192017,-0.28018462657928467,1.0818322896957397,-1.1391171216964722,0.8569961190223694,1.1863995790481567,1.543701171875,-0.21158242225646973,-1.1715902090072632,-0.012756148353219032,-0.2613421380519867,0.013700369745492935,0.6725123524665833,0.398883581161499,-0.8258983492851257,-0.15437695384025574,-1.1683456897735596,-1.2512433528900146,0.6238651871681213,0.12438970059156418,0.42284223437309265,-0.4038842022418976,-0.4430493414402008,0.04648962244391441,-0.4574930667877197,-0.44426429271698,-0.1382410228252411,-1.1331112384796143,-1.5653525590896606,1.2769185304641724,0.25498953461647034,0.5806981921195984,-0.40765848755836487,-0.8430556654930115,1.2915440797805786,-0.021142249926924706,0.4901098608970642,-0.00090625393204391,-0.18154610693454742,0.19870321452617645,-0.5580260157585144,-0.490355908870697,0.613886833190918,0.7368587851524353,0.14244703948497772,1.354920506477356,-0.5515757203102112,0.40697798132896423,1.182608723640442,-0.7779017686843872,-0.5241814255714417,-0.15979374945163727,-0.17764104902744293,-0.36760279536247253,-0.8993831872940063,0.6251269578933716,-0.3855169713497162,0.048398956656455994,0.7377215027809143,-0.00495319114997983,0.17285072803497314,0.48403576016426086,0.28951898217201233,-1.0270260572433472,-0.06580077856779099,-0.6877298355102539,0.46251237392425537,0.3993176519870758,0.2356155663728714,-0.4922310709953308,-1.2144222259521484,-1.251487374305725,-0.6973437070846558,-0.5985662937164307,-0.23969709873199463,-0.40590259432792664,0.645548939704895,0.6277325749397278,-0.3909681439399719,0.16051846742630005,-0.24665583670139313,0.4808529019355774,-0.5370041728019714,0.14812159538269043,0.2991113066673279,0.2130594402551651,0.6669979691505432,-0.03912629187107086,-0.561979353427887,-1.0742675065994263,0.05244066193699837,-0.004508770536631346,-0.5264297723770142,-0.026500580832362175,0.8938613533973694,-0.23453600704669952,0.16007201373577118,-0.4514085054397583,-1.4760034084320068,-0.9994725584983826,0.8941289186477661,0.15572093427181244,1.0360952615737915,0.18391524255275726,0.8879136443138123,0.09345513582229614,0.08675841987133026,-0.39634111523628235,0.5531485676765442,0.46198102831840515,0.39045873284339905,0.625947892665863,0.0896015539765358,0.18414193391799927,0.32663869857788086,1.1635631322860718,0.5262474417686462,0.09962394088506699,0.8025357723236084,-0.3395896852016449,0.3883128762245178,-0.6365329027175903,1.4578953981399536,0.030913181602954865,-0.74550861120224,0.8226694464683533,-0.9633876085281372,1.0679161548614502,-0.983272910118103,-0.8744778633117676,-2.23781156539917,-0.5461565256118774,0.3158281743526459,0.9990300536155701,1.1643166542053223,0.05335305631160736,-1.0145856142044067,-0.42003917694091797,0.5101746916770935,0.16066695749759674,-0.23309622704982758,0.14700691401958466,-0.6761054396629333,0.352149099111557,0.06997303664684296,-0.47864747047424316,0.19962765276432037,-0.07525231689214706,-0.7101983428001404,-0.40510743856430054,0.01287707220762968,-0.30342239141464233,-1.5239949226379395,1.32878577709198,-0.3033784031867981,0.5172916650772095,-0.015645742416381836,-0.08184982091188431,0.963584840297699,-1.1032544374465942,-0.25760984420776367,-0.935859739780426,0.1325080394744873,0.5897400379180908,-0.41014474630355835,-0.00885941181331873,0.10320012271404266,-0.010989590547978878,-0.2545575201511383,1.767142653465271,-0.334272563457489,1.341773509979248,0.9618729948997498,-1.0269118547439575,0.349358469247818,0.507668137550354,0.4995693564414978,-1.0774824619293213,0.45285865664482117,-1.5297108888626099,0.06667939573526382,0.9263933897018433,-0.37960267066955566,-0.21477915346622467,-0.4474169909954071,0.5814543962478638,0.6588833332061768,-0.41641342639923096,0.4295639395713806,0.4681565761566162,1.8766883611679077,1.2146495580673218,1.2461774349212646,-0.4494514763355255,0.3954620957374573,-0.02733793668448925,0.39699026942253113,-0.22079914808273315,0.5096337795257568,-0.08831954747438431,-0.17995280027389526,-1.7936983108520508,-1.2207841873168945,-0.2541871666908264,-2.539032459259033,0.35689958930015564,0.23154455423355103,-0.5314834713935852,-0.36341363191604614,-0.11552300304174423,-1.6863864660263062,0.719249963760376,0.21241122484207153,-0.6435341238975525,-0.18469023704528809,-0.4580742120742798,-0.18207202851772308,-1.0607452392578125,0.3109968602657318,-0.17741844058036804,0.8676909804344177,-0.10531194508075714,-0.573843240737915,0.5374559760093689,0.8571844100952148,0.9592422246932983,0.4702613353729248,-0.257142573595047,-0.15860672295093536,-0.07870391756296158,0.5371137857437134,0.3211587965488434,-0.5029635429382324,0.34593069553375244,0.6421875953674316,0.5477765798568726,-0.7528078556060791,-0.9875747561454773,-0.5671206712722778,-1.033603549003601,1.1822508573532104,0.28358861804008484,-0.5998846292495728,0.1820465475320816,0.0018290276639163494,-0.018804073333740234,-1.295914888381958,1.2948408126831055,0.7520649433135986,-0.8877397179603577,0.21919558942317963,0.07579346746206284,0.47022339701652527,1.1649465560913086,1.3736084699630737,-0.505474865436554,-2.047346830368042,-0.12169497460126877,-0.4076637327671051,0.808674156665802,0.14214776456356049,-0.19188396632671356,-0.47851935029029846,0.07297295331954956,-2.539794921875,-1.0355238914489746,0.15227638185024261,0.6917768716812134,1.4083349704742432,0.05080562084913254,-0.7027785778045654,-1.2738494873046875,0.3934493660926819,-0.5062260627746582,-0.144624724984169,-1.2765103578567505,0.2025170773267746,0.19541718065738678,-0.14604350924491882,0.22075803577899933,0.41031673550605774,0.11646466702222824,0.16659978032112122,0.48305559158325195,-0.00737239234149456,0.6330700516700745,0.192307248711586,-0.25992193818092346,0.16552875936031342,-0.4144958555698395,0.13280326128005981,0.9834920167922974,1.0623164176940918,-1.3985114097595215,0.452761173248291,0.591919481754303,0.4687165319919586,0.794650137424469,-1.0809412002563477,0.3036590814590454,-1.1494189500808716,-0.09731647372245789,0.10095149278640747,-1.535798192024231,-0.7373322248458862,-0.30880552530288696,0.5031781196594238,-0.3320016860961914,0.43934839963912964,0.8799502849578857,0.9294441938400269,-1.0872979164123535,-0.07845773547887802,0.2716290354728699,-0.14401552081108093,1.0970784425735474,0.1443972885608673,-0.5090599656105042,-0.6789315342903137,-0.9339993000030518,-1.4019490480422974,0.48011040687561035,0.7913488149642944,0.2940075397491455,1.9681692123413086,-1.2099124193191528,0.28368043899536133,0.4337399899959564,-0.194166362285614,-1.0754274129867554,0.4149773418903351,-0.26736941933631897,-0.980483889579773,-1.1287355422973633,-0.9602881669998169,-0.7098138332366943,0.3306068480014801,1.5612155199050903,-0.1504616141319275,0.09823931753635406,0.9354812502861023,0.4185256361961365,-1.5258333683013916,0.16481266915798187,0.26962774991989136,1.385907769203186,1.71890127658844,1.5138564109802246,-1.2193496227264404,-0.2797391414642334,-0.8935462832450867,-1.5450459718704224,-1.2935640811920166,-0.24507512152194977,0.2950555980205536,0.6056527495384216,-1.0346111059188843,0.18005576729774475,0.24520783126354218,-0.6113957166671753,-0.13028784096240997,0.8511006236076355,-0.5502607822418213,-0.05858749896287918,0.7500286102294922,-0.7335601449012756,-0.20344114303588867,-1.538810133934021,0.042674850672483444,-0.20062749087810516,0.3920639157295227,0.1337650716304779,0.46135538816452026,0.18737173080444336,-0.6352540850639343,0.9088487029075623,-0.24617712199687958,0.4417295455932617,-0.07837163656949997,0.031178852543234825,0.060173388570547104,1.009094476699829,-0.06316205114126205,1.026808261871338,1.092864751815796,1.1630566120147705,0.03912359103560448,-0.14417217671871185,0.7396509647369385,0.31973376870155334,1.0555739402770996,0.1472887545824051,0.8621187210083008,-0.1803223192691803,0.3911064565181732,0.028538886457681656,-1.0646578073501587,0.43535012006759644,-0.5234201550483704,-0.9778648018836975,-0.24547645449638367,0.08182725310325623,-0.21338851749897003,0.22340592741966248,0.28710538148880005,-0.2912524342536926,0.6754910945892334,0.13967251777648926,0.23271535336971283,0.037326302379369736,0.07364966720342636,0.491136759519577,1.490727424621582,0.4030390977859497,0.17549200356006622,0.17416422069072723,0.2084667831659317,0.20031806826591492,-0.692129909992218,0.3878261148929596,0.39871686697006226,0.4736698269844055,0.6140128374099731,-1.0901975631713867,-0.498043417930603,-0.14223919808864594,0.914469838142395,-0.41617560386657715,0.0904940739274025,1.5453107357025146,0.36072394251823425,-0.3067755699157715,-0.0026331625413149595,-0.5908357501029968,-0.28898802399635315,0.4866778552532196,0.3973013460636139,0.35613900423049927,-0.7197318077087402,-0.1236608624458313,-0.5383943319320679,0.028270866721868515,-0.16082921624183655,-0.19655711948871613,0.6344488859176636,0.3425760269165039,-1.235482931137085,-2.401715040206909,0.8067427277565002,-0.5594786405563354,-0.4571008086204529,-0.3946594297885895,-0.9352678060531616,0.03995165228843689,-0.6086252331733704,0.31235775351524353,-1.2169142961502075,0.19232173264026642,0.1703164279460907,-1.173068881034851,0.22603555023670197,0.2255013883113861,1.3223292827606201,0.2166987508535385,0.2689238488674164,1.4091715812683105,-0.4558108448982239,0.432118684053421,-0.04842235520482063,1.3969852924346924,0.8783392906188965,-0.24756616353988647,-1.309709072113037,-0.3454456627368927,0.058875929564237595,-0.09795138239860535,-0.7843711972236633,-1.2278751134872437,-0.8774580955505371,0.9616435170173645,0.22398893535137177,-0.5831670165061951,-0.6101756691932678,-2.219883918762207]},"forgetHidden":{"rows":20,"columns":20,"weights":[0.10669243335723877,-0.21279947459697723,0.3266093134880066,-0.20098023116588593,0.35565853118896484,-0.7324972748756409,0.605158269405365,-0.0980806052684784,-0.5077756643295288,0.0005388348363339901,-0.07027862221002579,-0.28275585174560547,0.13550806045532227,-0.47040432691574097,-0.14204344153404236,-0.2574763596057892,0.3268878757953644,0.4381045401096344,0.04386276379227638,-0.625144362449646,0.1150609701871872,-0.4179152548313141,-2.19917368888855,-0.03918302059173584,0.5746803879737854,-0.42402997612953186,-0.12097611278295517,0.8880838751792908,-0.19763104617595673,-0.7109903693199158,0.8678779602050781,-0.2262638956308365,-1.415592908859253,-0.05195331200957298,-0.6292847394943237,-0.9052450656890869,0.3503660559654236,-0.6445484161376953,-1.6010549068450928,-0.3086041510105133,-0.12111186981201172,0.38246068358421326,-0.5095517635345459,-0.48481878638267517,0.8604022860527039,0.470817506313324,0.31528058648109436,0.6120939254760742,0.1421218365430832,0.5885972380638123,-0.17410282790660858,0.34483158588409424,-0.5832881331443787,-1.009222149848938,0.4319823384284973,0.6039823889732361,0.32899805903434753,0.6715244650840759,-0.08770164847373962,0.6581198573112488,0.2054693102836609,-0.0035067202989012003,-1.6437427997589111,-0.0022633944172412157,0.08301948010921478,0.6647390127182007,-0.5342257618904114,0.2757898271083832,-0.015745554119348526,0.23170387744903564,0.6039231419563293,-1.0039807558059692,-0.5859854221343994,-0.28330522775650024,0.3587467670440674,0.11346215009689331,0.2944486141204834,-0.765313982963562,-0.7488728761672974,0.10738665610551834,0.029278744012117386,0.040711723268032074,-1.3420467376708984,-0.4039267301559448,0.3455076217651367,0.08220420032739639,-0.5542429089546204,0.2960086464881897,-0.7989407181739807,0.2259179949760437,0.5934142470359802,-0.7391254305839539,-0.7004724144935608,-0.30984464287757874,0.06573966145515442,-0.10562191903591156,-0.04641157016158104,-0.19419793784618378,-1.2430537939071655,0.25151193141937256,1.5081034898757935,-0.8807278871536255,-0.3017837107181549,1.1241202354431152,-0.7757382988929749,-0.4673945903778076,0.2640312612056732,-1.23701810836792,-0.5217915177345276,-0.6214783787727356,0.5365105867385864,-1.1135756969451904,0.21570196747779846,0.20712873339653015,-0.1387895792722702,-0.6513115167617798,-0.2741784155368805,0.7341265082359314,0.1623827964067459,-0.622062087059021,-0.5052691102027893,0.7434327602386475,-1.3177322149276733,-0.24679355323314667,1.0954686403274536,1.2017877101898193,-0.5581439137458801,-1.4715341329574585,0.43164339661598206,1.1153061389923096,0.7754631638526917,1.901695966720581,0.9414988160133362,0.8322341442108154,1.8116785287857056,1.297865390777588,-1.073177456855774,-1.1426575183868408,-0.06191461905837059,0.7809667587280273,-1.0079454183578491,0.09117929637432098,-1.1988115310668945,0.4247809946537018,0.9891694188117981,0.4064406752586365,0.46930596232414246,-0.7915652990341187,-0.031932950019836426,0.41427239775657654,0.7778803110122681,-0.964144766330719,-0.8800705671310425,-0.4716590940952301,0.49512389302253723,0.5552589297294617,0.8385183215141296,-0.3980047404766083,-0.9286698698997498,0.3345503509044647,-0.44950875639915466,-0.09370622038841248,-0.8556078672409058,0.27430468797683716,0.9128838181495667,0.06476899236440659,0.26724106073379517,-0.18108265101909637,-1.0287561416625977,0.212544247508049,1.2453821897506714,-0.8064924478530884,-0.9310149550437927,-0.9569790959358215,-0.3062031865119934,0.15650828182697296,0.963452935218811,-1.183655858039856,-1.0534536838531494,0.1658347100019455,0.32036861777305603,-0.3557380735874176,-0.3798981010913849,0.7510191798210144,0.01927906833589077,-0.9389479756355286,-0.9146073460578918,-0.8300811648368835,0.48716893792152405,-0.28636395931243896,0.18895256519317627,-0.7084690928459167,-0.01897660829126835,-0.3188364505767822,-0.49242284893989563,-0.9145476818084717,-0.027655769139528275,0.8346236944198608,-0.08741182833909988,-0.9540915489196777,0.35499295592308044,0.5640660524368286,0.33807262778282166,-0.7700711488723755,0.16255146265029907,-0.046119481325149536,-0.6154899001121521,1.52474844455719,-0.3791140615940094,0.050579894334077835,-0.10506869852542877,0.056732069700956345,-0.21898621320724487,-0.5877940654754639,0.021266847848892212,0.14341220259666443,0.6083808541297913,0.05922158807516098,0.14217591285705566,-0.1850385069847107,0.6933527588844299,1.4764165878295898,2.2296931743621826,-1.1734366416931152,-1.334922194480896,0.04384405538439751,0.26909855008125305,0.672126293182373,-0.05083423852920532,-1.1181409358978271,-1.8918417692184448,1.346055030822754,0.12489695101976395,0.9155396819114685,0.34852153062820435,-0.9010809659957886,0.3858909606933594,0.8805683255195618,0.5303823351860046,-0.23522502183914185,-0.296588659286499,0.3673058748245239,-0.522607684135437,-0.3915616273880005,-0.08117708563804626,-0.05456601828336716,-0.0057867057621479034,0.6079491376876831,-0.4027688801288605,-0.32534852623939514,0.506771445274353,-0.7913491129875183,-0.15568877756595612,-0.055388323962688446,-0.10917580127716064,-0.34100255370140076,0.1352245956659317,-0.3024294078350067,-0.2326688915491104,0.06021656468510628,-1.704142689704895,1.1184931993484497,-0.451680064201355,0.21587492525577545,-0.6254823803901672,-0.13621564209461212,-0.21717295050621033,0.3041260242462158,-0.7366971373558044,2.122952699661255,-0.3041451573371887,-0.3716629147529602,-0.8137504458427429,-1.0480097532272339,1.5594542026519775,1.7255463600158691,0.32266440987586975,0.01017402671277523,0.3291795551776886,-0.6653576493263245,0.06525851041078568,0.3749271333217621,-0.04189752787351608,0.27038416266441345,0.42755836248397827,0.31947875022888184,-0.006793201435357332,-0.5415250062942505,-0.10384219884872437,0.5815637111663818,0.25561854243278503,-0.44374412298202515,-0.4029370844364166,-0.3899954855442047,0.20425792038440704,0.2876165807247162,0.4122059643268585,0.4691232740879059,0.26225221157073975,0.19848185777664185,0.2796807885169983,0.5077183246612549,1.1140674352645874,0.39558231830596924,-1.2390555143356323,-0.29630523920059204,-0.6766387224197388,-1.05567467212677,0.27040037512779236,0.4068700671195984,-0.2521592676639557,0.11903064697980881,-0.5329514145851135,0.49414557218551636,-0.23078586161136627,0.08044271916151047,-0.3252483010292053,-1.2698618173599243,0.5542241334915161,-0.1645360141992569,-1.6438953876495361,0.7413232326507568,-0.9063813090324402,0.3230248689651489,1.373833179473877,1.1491634845733643,1.5514793395996094,-0.02541322074830532,-0.6621444225311279,1.5527989864349365,-0.03337733447551727,0.9441632628440857,-0.5835054516792297,-1.925818681716919,-0.24057675898075104,1.2560927867889404,0.9657957553863525,0.9396648406982422,-0.6671380400657654,0.9949718713760376,0.9547670483589172,0.5543668866157532,0.5808818340301514,-0.25968044996261597,-0.4906322658061981,0.3775641620159149,-1.1233681440353394,0.4257003366947174,-0.45037364959716797,1.0291458368301392,-2.6438939571380615,2.085556983947754,-0.32592326402664185,-1.2309067249298096,-0.7755369544029236,0.7824677228927612,-0.43443039059638977,1.151582956314087,0.022180035710334778,-0.05461988225579262,0.5489718914031982,-0.4908047914505005,-2.463270902633667,-0.24076758325099945,0.2620663046836853,-0.2071613073348999,-0.2250605821609497,-0.8292206525802612,0.5386602282524109,-0.8214864730834961,1.0121941566467285,0.04856489226222038,-0.4269648790359497,-0.39311015605926514,-0.6985452175140381,-0.643439769744873,-0.22804218530654907,-0.7980616092681885,-2.2841498851776123,0.08065357059240341,2.2709877490997314,-0.8608809113502502,0.14638657867908478,1.4638737440109253,0.7516255378723145,-0.061790984123945236,1.1884257793426514,-0.5897754430770874,-1.2680046558380127,0.5704621076583862,0.10688154399394989,1.4548908472061157,0.27373290061950684,0.3332814574241638,0.3497132956981659,0.22584255039691925,-0.6339362263679504,-0.06278111785650253,-0.3134370744228363,0.24678054451942444]},"forgetBias":{"rows":20,"columns":1,"weights":[0,0,0,0,0,0,0,0,0,0,0,0,0,0,0,0,0,0,0,0]},"outputMatrix":{"rows":20,"columns":31,"weights":[-0.5787303447723389,0.9262824654579163,-1.7151775360107422,-0.32792750000953674,1.4004731178283691,-1.1955019235610962,-0.35065579414367676,-0.5825990438461304,-0.4237622916698456,-0.8585492372512817,0.5120293498039246,0.21906669437885284,0.5518984198570251,-0.3178016245365143,-0.4937303066253662,0.7229970097541809,0.011390595696866512,0.4577331840991974,-0.0972733125090599,0.05464392527937889,-0.31144192814826965,0.18546965718269348,-0.8324249386787415,1.6224223375320435,1.6580955982208252,0.6811331510543823,1.6379835605621338,-0.8667926788330078,0.08680681884288788,0.33441731333732605,0.5395158529281616,-0.43423497676849365,-0.27945831418037415,-1.9898661375045776,-0.09927787631750107,1.712881326675415,-1.2592929601669312,-0.41432738304138184,0.07706969231367111,0.0004807820660062134,-0.42265957593917847,-0.2668311297893524,-0.048904333263635635,0.6402432918548584,-0.09173253178596497,0.11846991628408432,-0.03761740028858185,-0.6124785542488098,0.4854544997215271,0.036009665578603745,0.12439003586769104,-0.5754349827766418,0.041477177292108536,-0.39917516708374023,1.4075729846954346,1.1616277694702148,-0.350155770778656,1.7807928323745728,-1.1087608337402344,-0.6075078248977661,-0.25101256370544434,0.3547312915325165,-0.5126774907112122,0.44144800305366516,-1.776656985282898,-0.18615634739398956,0.7006686925888062,-1.7498111724853516,-0.4965410828590393,-0.9796360731124878,-0.2343902736902237,0.09005360305309296,0.058925241231918335,0.14745032787322998,0.3528144657611847,0.187221497297287,-0.28505703806877136,0.23544208705425262,0.5657251477241516,0.4964136779308319,-0.0066944691352546215,0.24455220997333527,0.09873725473880768,1.1474289894104004,-0.9613885879516602,0.4457106590270996,1.3596206903457642,1.1773556470870972,1.6707812547683716,-1.4254575967788696,0.12121641635894775,0.1880989521741867,1.1929155588150024,-0.08126728981733322,0.5238795876502991,-1.9058375358581543,-0.5163666009902954,1.034474492073059,-0.6165773272514343,-0.044819194823503494,0.0719146728515625,-0.6470063924789429,-1.3438801765441895,0.799392819404602,-0.0004161152755841613,0.3705238997936249,-0.19565951824188232,-0.6340793371200562,0.987667441368103,0.16190728545188904,0.3082555830478668,0.1851203590631485,-0.3312854766845703,-0.2918960154056549,-0.3868705928325653,-0.3089402914047241,1.632933259010315,1.3147810697555542,0.1489405781030655,1.2411330938339233,-1.0607147216796875,-0.6525244116783142,0.107546366751194,-0.4658166468143463,0.43418455123901367,1.9861868619918823,-0.07576722651720047,-0.46000757813453674,-0.4321610927581787,-0.1768803894519806,0.5832505822181702,-1.2561192512512207,-0.6333209276199341,-0.5323593020439148,0.692512035369873,0.1579916775226593,-0.28398674726486206,0.8479230999946594,-0.7704880237579346,0.8218142986297607,0.6036086082458496,0.03564221411943436,0.14962473511695862,0.47127872705459595,0.143763929605484,1.0814852714538574,0.4556528329849243,0.05981740728020668,1.245396614074707,1.5481022596359253,0.8420319557189941,-0.05012926459312439,1.045682668685913,1.0682077407836914,0.6716842651367188,-0.4111909568309784,-0.4450148642063141,0.24203114211559296,-0.4520975947380066,-0.49104174971580505,0.40959641337394714,-0.25715991854667664,0.6278876662254333,0.12805603444576263,0.9901232719421387,-0.845902681350708,0.48899805545806885,0.2484547644853592,-0.365089476108551,0.6158936619758606,-0.8507784008979797,0.5375649333000183,0.36542409658432007,0.7392135858535767,-0.14775018393993378,-0.829217255115509,-0.084684818983078,-0.6743766665458679,-0.5492856502532959,-0.16649885475635529,-0.1819172203540802,-1.2655998468399048,0.35653138160705566,-0.569599449634552,-0.35393965244293213,-0.09314466267824173,0.7708619236946106,-0.6030377745628357,1.7211576700210571,-0.2478323131799698,-1.3180323839187622,1.8061150312423706,0.27996668219566345,0.8815957903862,0.016097771003842354,0.5316896438598633,-0.22562913596630096,-0.35685449838638306,-0.61710524559021,0.051027677953243256,0.3702848255634308,-0.8550024032592773,-0.2798566222190857,-0.893276572227478,-0.4980935752391815,-0.34542664885520935,0.05379766970872879,-0.723483681678772,0.7598944902420044,-1.0327253341674805,-1.644102692604065,-0.9198870658874512,-1.408874750137329,1.1035114526748657,-0.40684816241264343,-0.2703060805797577,-1.1975347995758057,-0.5375456809997559,-0.4627375602722168,-0.9036347270011902,0.8896496295928955,0.7475793957710266,-1.5536961555480957,0.1741383671760559,-0.10724790394306183,0.42951592803001404,-0.048816580325365067,-0.6102020740509033,0.36436358094215393,0.7350637912750244,-0.012906242161989212,0.4311448037624359,-0.46042540669441223,-1.149368166923523,0.2974984347820282,-0.6950322985649109,-0.07567758858203888,-0.29461830854415894,0.32261550426483154,0.08713525533676147,0.3606530725955963,0.11101426929235458,-0.5451287031173706,2.6684720516204834,-0.8539694547653198,-0.7602126002311707,-0.8828019499778748,0.5522430539131165,-0.6711166501045227,0.9201400279998779,-1.5936195850372314,0.192530557513237,1.6975034475326538,-1.2051368951797485,-0.4934055507183075,-0.31381967663764954,-0.3591328263282776,-1.3040060997009277,0.07551027089357376,-0.4265671372413635,0.7826536297798157,-0.20851054787635803,-0.1340736597776413,0.3246782124042511,0.06557183712720871,0.5835495591163635,0.02109508588910103,0.11858657002449036,0.1406649649143219,0.019525615498423576,-0.8298727869987488,2.046029806137085,2.186969757080078,0.6173372864723206,0.9414845108985901,-1.238228678703308,0.046958670020103455,0.00017308637325186282,0.37944769859313965,-0.9298115372657776,-0.24692079424858093,-0.07752764970064163,-0.8753950595855713,0.05608314275741577,-0.6746874451637268,-0.7502890825271606,-0.494180291891098,0.644845724105835,1.1573550701141357,-0.9551098346710205,0.9093150496482849,0.7437300086021423,-0.8917469382286072,0.042979203164577484,-0.5679348707199097,1.30471932888031,1.3661155700683594,1.1575143337249756,-0.5431878566741943,-1.1623256206512451,0.06038425862789154,-1.1411842107772827,0.08340393006801605,0.30847108364105225,0.3216114044189453,-0.3405624032020569,-0.8008129596710205,-1.2929809093475342,-0.5597136616706848,0.04953154921531677,-0.5156436562538147,0.8223261833190918,-0.6354287266731262,-0.1902453899383545,0.7163342237472534,-0.6844246983528137,-0.16348706185817719,-1.13058602809906,-0.4221583902835846,-0.36732354760169983,0.48763126134872437,0.08942513912916183,0.603921115398407,0.14384540915489197,-0.4750100076198578,0.6742255687713623,0.484840989112854,0.25032198429107666,0.23166243731975555,0.12045888602733612,0.08797524869441986,0.6547538042068481,-0.426945298910141,1.0721521377563477,1.6634141206741333,0.9700729846954346,1.4398064613342285,-0.12990425527095795,0.637708306312561,0.2836211621761322,0.8134167194366455,0.36829355359077454,1.37554931640625,-0.6579930186271667,-0.35377517342567444,0.12592387199401855,-1.315792441368103,0.5533754229545593,-0.570978045463562,-1.3228251934051514,-0.39343273639678955,0.8675835728645325,-0.21764695644378662,0.08042950928211212,1.2676925659179688,-1.0956189632415771,1.9546422958374023,1.0986186265945435,-0.0885821282863617,0.5641487836837769,0.3853972554206848,0.39432722330093384,2.1914632320404053,-0.2741951048374176,0.08053527772426605,1.0355509519577026,1.867199420928955,0.32365429401397705,-1.0562727451324463,0.912138044834137,1.5611584186553955,0.2761270999908447,0.8958610892295837,-0.5274750590324402,-0.12233714759349823,-0.20415836572647095,0.5675144791603088,-0.8680635690689087,1.0482884645462036,0.6822237968444824,-0.12663593888282776,0.142232745885849,-0.14567671716213226,0.1850610226392746,-0.22841006517410278,0.5455864071846008,-0.19710960984230042,0.5654091835021973,-0.04920230433344841,0.1394365131855011,0.43333882093429565,-0.09630829095840454,0.34236669540405273,1.1185911893844604,1.5990872383117676,-0.6343770623207092,-1.7650012969970703,-0.7742957472801208,0.6437830924987793,-0.9872353672981262,-0.16807034611701965,0.08787337690591812,-0.9644680619239807,0.35216400027275085,0.5460031032562256,-1.2653130292892456,0.5502446293830872,0.7253198623657227,-1.492221713066101,-0.05579685792326927,-0.280074805021286,-0.3329635262489319,-1.5246349573135376,1.2972984313964844,-0.8744283318519592,-0.5693247318267822,0.32697799801826477,-0.7998027801513672,0.975046694278717,-0.96826171875,-1.1000443696975708,-1.3163255453109741,0.22777284681797028,0.9412151575088501,-0.009460551664233208,-0.35790157318115234,0.5631291270256042,0.37142413854599,0.6081833243370056,2.2356491088867188,-1.0042190551757813,0.6102121472358704,0.5511093735694885,0.3884376287460327,-0.49559587240219116,0.060061562806367874,0.3083362579345703,0.7487902641296387,-0.6511390805244446,0.21147772669792175,0.4582201838493347,0.08501444011926651,0.8441184163093567,0.5456997752189636,-0.30387812852859497,0.27385157346725464,-0.7275857925415039,-0.4046803116798401,0.2677103877067566,-1.0776004791259766,-0.6420274376869202,0.10874291509389877,-0.19987700879573822,-0.3299831748008728,-0.6320477724075317,-0.9242265820503235,-0.32964757084846497,-0.4376583695411682,-0.42590078711509705,-0.17822380363941193,-0.5478556156158447,0.36315497756004333,-1.2179105281829834,-1.0812263488769531,0.42094120383262634,-0.5123435854911804,0.5935243964195251,0.18526019155979156,-0.4890311062335968,0.08958753943443298,-0.3138371706008911,-0.8687648773193359,-0.7580099105834961,0.7012372612953186,1.064887285232544,0.32395321130752563,0.7533742785453796,0.6201733350753784,0.024969706311821938,-0.35842686891555786,-0.16335752606391907,0.5894487500190735,0.9094467163085938,0.3840095102787018,-0.10739274322986603,-0.620690107345581,0.34083083271980286,-1.0696139335632324,0.1620107740163803,0.46881189942359924,0.5616847276687622,0.37070608139038086,0.43705546855926514,-0.3419697880744934,-0.11721911281347275,0.35271111130714417,0.21935972571372986,0.46223464608192444,-0.5486164093017578,0.8817657232284546,0.7489072680473328,-0.21352200210094452,0.09702912718057632,-1.0314196348190308,-0.2828829884529114,-0.9253374934196472,0.9499754309654236,-0.4345180094242096,-0.1515355259180069,0.455417275428772,-0.9704378247261047,0.845729649066925,-0.49098703265190125,-0.4819226861000061,-0.9968585968017578,0.12264462560415268,0.46478283405303955,0.44762122631073,0.34518295526504517,0.8657464385032654,0.00061380973784253,0.44612088799476624,0.8053387403488159,-0.05431770905852318,0.5011323690414429,0.3853774666786194,0.18130287528038025,0.5715706944465637,1.8157637119293213,0.2812666893005371,0.6209067702293396,-0.4730735719203949,-0.16006292402744293,0.5592690110206604,-1.436208724975586,-0.6928799748420715,0.38605254888534546,0.2467949241399765,-0.39116528630256653,-0.40066346526145935,0.6908372044563293,-0.9583584666252136,0.6013425588607788,0.12859638035297394,0.021451791748404503,-0.17534801363945007,0.6271296143531799,0.35032913088798523,1.2373429536819458,0.02053258940577507,-0.05669454112648964,0.7706878781318665,1.6066768169403076,-0.6898518204689026,0.09472312778234482,0.6103150248527527,0.8338416218757629,1.2049930095672607,0.22373688220977783,-0.7576268911361694,-1.534538745880127,0.27775710821151733,1.7329992055892944,-2.3202931880950928,0.029742874205112457,0.13317669928073883,-0.3251645863056183,-0.22225771844387054,-0.35153037309646606,-0.08586151897907257,0.4744720757007599,-0.05477188527584076,0.09979697316884995,0.11595315486192703,-0.4816245436668396,-0.18001452088356018,-0.3997027277946472,0.2813314199447632,0.7009718418121338,0.39908117055892944,0.09232114255428314,1.014417052268982,0.11322716623544693,-0.33340421319007874,1.3476018905639648,-2.4097695350646973,-0.36541834473609924,-0.0911325141787529,-0.25306466221809387,-0.2767755091190338,0.08030479401350021,0.7301984429359436,-0.39495331048965454,-1.0740808248519897,1.4081140756607056,0.0639355257153511,1.3083566427230835,-0.5844623446464539,0.23176583647727966,0.07495316118001938,0.2826661467552185,0.3509460985660553,0.24123264849185944,0.10162745416164398,0.06173465773463249,0.6428273916244507,0.20168010890483856,0.7808569669723511,-0.01094222255051136,-0.7187265157699585,0.10481242090463638,-0.5010581612586975,-1.0496844053268433,-0.938353419303894,-0.3390105664730072,-0.9341268539428711,0.7091618180274963,-0.9524694085121155,-0.28439417481422424,-1.387802004814148]},"outputHidden":{"rows":20,"columns":20,"weights":[-0.40887051820755005,0.04407951608300209,1.4442421197891235,0.010248107835650444,0.2661435008049011,-0.39107638597488403,0.1364866942167282,0.2566013038158417,-1.0888570547103882,0.3746149241924286,-0.3333057761192322,0.10645698755979538,-0.21477772295475006,-0.7683331966400146,-0.18609079718589783,-0.4528946876525879,0.7675297260284424,0.3023861348628998,0.40491366386413574,-0.5119608640670776,-0.6402556896209717,-1.5796948671340942,-1.953866958618164,0.8402653336524963,1.2341744899749756,0.38253405690193176,0.16107963025569916,-0.6903138160705566,-0.3064843416213989,-0.28240689635276794,1.8499066829681396,-1.529966115951538,-1.5148591995239258,-1.204935908317566,1.1045316457748413,0.3113715946674347,0.604485034942627,0.2841823697090149,-0.2671109139919281,0.32738468050956726,-0.5110756158828735,0.6902361512184143,0.8111500144004822,0.14180076122283936,0.19644422829151154,0.5246666669845581,-0.06380660086870193,0.5800133943557739,-0.9989978075027466,1.5559169054031372,-1.1741620302200317,1.1639676094055176,-0.10048764199018478,-1.2263514995574951,0.6918513774871826,0.46325039863586426,0.9227124452590942,0.6533370018005371,0.40961766242980957,0.8772957921028137,-1.6872862577438354,0.5656131505966187,-1.7956544160842896,-0.9956372976303101,-0.6296150088310242,-0.9622805714607239,-2.5984582901000977,0.47495630383491516,2.367985486984253,-0.6474713683128357,0.174102321267128,-0.8611125349998474,-0.8004409074783325,0.5770934820175171,-1.7957359552383423,-0.8656771779060364,0.03199881315231323,-1.6875205039978027,-1.0949994325637817,-0.1565578728914261,-0.08515563607215881,-0.32107752561569214,-0.8654964566230774,0.7545288801193237,3.117344379425049,-0.9719733595848083,-1.7530169486999512,-0.09995021671056747,0.1839418113231659,-0.1251961588859558,0.5975547432899475,0.796238899230957,-0.6964718699455261,-1.4884779453277588,-0.24462208151817322,-1.3003818988800049,0.5401710867881775,1.533226728439331,-0.8009443879127502,-0.5939079523086548,1.2287319898605347,-1.5383459329605103,0.7799752950668335,1.3492766618728638,-1.236768364906311,-0.2281874567270279,1.6092246770858765,-0.3486517071723938,-1.502436876296997,-0.7542217969894409,0.4467372000217438,0.7909582853317261,-0.13344062864780426,1.2578117847442627,0.5103868842124939,-0.7071654200553894,0.10055076330900192,-0.5075269937515259,-0.9638381004333496,0.25393226742744446,0.3632104694843292,0.8602042198181152,-0.20864005386829376,-0.0331239216029644,-0.6469173431396484,0.18227586150169373,-1.0958541631698608,0.5778469443321228,0.6536567211151123,0.16341441869735718,-1.568289875984192,2.104494094848633,0.21824154257774353,0.48004046082496643,0.6245797276496887,0.4802115261554718,-0.48776498436927795,0.91515052318573,0.7021842002868652,0.4730702042579651,-0.7427293062210083,0.08633721619844437,0.3254203796386719,-0.6578018069267273,0.28101029992103577,-0.05919233709573746,-0.3035210072994232,0.4511222839355469,-0.6274198293685913,0.5809860229492188,0.6077554225921631,-0.5604740381240845,-0.2936859130859375,-0.40079542994499207,0.3462424576282501,0.09780444949865341,0.6026727557182312,-0.612364649772644,-0.037483248859643936,0.19691674411296844,-0.1742514818906784,-0.2267732173204422,0.027714073657989502,-0.09273931384086609,0.6230326294898987,-0.020205926150083542,-0.5287195444107056,0.030306976288557053,-0.11730219423770905,0.38126376271247864,0.27110061049461365,-0.07387350499629974,-0.3034908175468445,0.01628985069692135,0.3541068434715271,-0.1500539481639862,-0.14666186273097992,0.9429312348365784,0.5290034413337708,0.0957544595003128,0.7822673320770264,-2.699673891067505,-0.4386393129825592,1.9843716621398926,0.7843968868255615,-0.4213000535964966,0.7993954420089722,-3.292609453201294,-0.854507565498352,0.0934242382645607,-0.1161373108625412,1.2240986824035645,-0.3269856870174408,-0.4857346713542938,0.14324362576007843,-0.2519955337047577,0.4843074083328247,0.046528641134500504,-1.1254911422729492,0.8063610792160034,-0.9092366695404053,1.1568251848220825,0.5382096767425537,-2.312863826751709,0.8405871987342834,1.5753151178359985,-1.60066819190979,1.2809643745422363,1.6586322784423828,1.687640905380249,-1.4888076782226563,1.0121489763259888,-1.6865755319595337,-1.1569080352783203,1.4645934104919434,1.325347900390625,0.33093035221099854,1.8915678262710571,0.17635835707187653,1.1274546384811401,1.5685588121414185,0.6448763012886047,1.862459659576416,0.8354425430297852,-1.001232624053955,-0.1758279800415039,-0.1136881485581398,0.36047327518463135,0.09156578034162521,-0.3493250906467438,-2.176356554031372,1.0134481191635132,-0.13028009235858917,1.3006136417388916,0.2844030559062958,-0.778739333152771,0.22689679265022278,1.247170090675354,0.7616774439811707,0.059451356530189514,-1.5721747875213623,-0.4393399953842163,-0.8286781311035156,-0.26468467712402344,1.062530517578125,0.8226150274276733,-0.6247243285179138,0.2629712224006653,-2.182152032852173,0.7025679349899292,-0.6440118551254272,0.9737179279327393,-1.9502999782562256,-2.4117798805236816,1.023921251296997,0.4610691964626312,1.011049509048462,0.6194992661476135,-0.33445796370506287,0.8763779997825623,-0.0014106635935604572,-0.648423969745636,-0.9826512336730957,0.5590725541114807,0.13101601600646973,0.7781365513801575,-0.9376338124275208,0.27833321690559387,-0.41159194707870483,0.6412737965583801,1.290786623954773,1.3460417985916138,-0.6085508465766907,-0.47023850679397583,0.6160445213317871,-0.37092840671539307,0.7419111728668213,1.538041353225708,-1.7701911926269531,-0.2079164683818817,0.18614350259304047,-0.7415565252304077,0.936680018901825,-0.6102414131164551,0.14444629848003387,-0.3686676025390625,-1.280484914779663,-0.20210452377796173,0.9721307158470154,-0.015203130431473255,-0.4447920620441437,0.9019308090209961,0.5066869258880615,0.7147418260574341,-0.343323677778244,-0.29007062315940857,-0.8092809915542603,0.411514550447464,0.2800382673740387,-0.003062286414206028,1.0866262912750244,0.53908771276474,1.0778040885925293,-1.3420789241790771,0.4062453508377075,-1.1300703287124634,-0.5113822221755981,0.5712640285491943,0.660943329334259,-0.5084580779075623,-0.6697949767112732,0.1623428612947464,0.7773609757423401,1.0961347818374634,-0.7259485125541687,-1.526205062866211,-0.8741757869720459,0.5855749845504761,0.8977298140525818,-0.6300254464149475,-1.9564595222473145,0.8484615087509155,-0.1138361319899559,-0.21235932409763336,2.239788770675659,0.6973280906677246,-0.9829673171043396,1.0999997854232788,-1.2384682893753052,0.935502827167511,-0.6701334714889526,0.42139625549316406,-2.121936559677124,-2.51092529296875,0.6504300236701965,0.8284384608268738,1.9815739393234253,0.9024441242218018,-0.8677075505256653,0.26725420355796814,0.09296741336584091,-0.13713373243808746,0.8337827324867249,0.05658528581261635,1.195216417312622,-0.10429934412240982,0.3580438196659088,0.6115089058876038,-0.19162602722644806,0.9077126383781433,-0.4246557354927063,1.3630715608596802,-0.2675797939300537,-0.7312151193618774,0.8132286071777344,0.7476399540901184,-0.2438548505306244,1.0953069925308228,0.03695471212267876,-0.42098236083984375,1.0402432680130005,-1.4107433557510376,0.9767568707466125,1.0566580295562744,-0.24967741966247559,0.5084413886070251,0.7498314380645752,-0.3330751657485962,0.06914874911308289,0.27701640129089355,0.3311205804347992,-0.2958943843841553,-0.216566801071167,0.5890258550643921,0.36244577169418335,-0.22604398429393768,0.29297930002212524,0.07979914546012878,-1.8455041646957397,1.1586863994598389,1.2701610326766968,-1.7413380146026611,0.35414430499076843,1.0111945867538452,1.0803099870681763,-0.6838937401771545,1.3703112602233887,-0.28053876757621765,-2.69549822807312,-0.4581054151058197,0.015307547524571419,0.5743476748466492,-0.629031777381897,-0.4145050644874573,0.3532492220401764,-0.4626850485801697,0.7326704859733582,-0.42468345165252686,-0.954103946685791,-0.16309134662151337]},"outputBias":{"rows":20,"columns":1,"weights":[-0.8869781494140625,-0.6378898024559021,-0.8209028840065002,-0.7039565443992615,-2.1240992546081543,0.16059330105781555,0.023314233869314194,-0.6898393034934998,-0.889829695224762,-0.46648934483528137,-0.9449580907821655,-1.1877212524414063,-0.8386619091033936,-0.8584862351417542,0.7195943593978882,1.7317267656326294,-0.9346612691879272,-0.23745349049568176,-0.8597043752670288,0.314193457365036]},"cellActivationMatrix":{"rows":20,"columns":31,"weights":[-0.27212798595428467,-0.24317233264446259,-1.4029291868209839,-0.46012169122695923,0.5013651251792908,-1.7910219430923462,-0.404051810503006,-0.1823340356349945,0.24262826144695282,0.08663550764322281,-0.08546579629182816,0.25140273571014404,0.0680583119392395,-0.252259761095047,-0.17284393310546875,0.11355065554380417,-0.10232460498809814,0.09801386296749115,0.15681692957878113,0.030069073662161827,-0.09501104056835175,0.11777850240468979,-0.6266201138496399,-0.04829366132616997,0.19454073905944824,0.09411796182394028,1.5226552486419678,-1.5453535318374634,0.15318021178245544,0.2848847508430481,0.41512584686279297,0.7092466354370117,-0.8256752490997314,0.4323022663593292,1.0999892950057983,0.34808340668678284,0.6495285034179688,0.5902882814407349,-0.5394085645675659  ,-0.0001570004824316129,0.31124135851860046,0.15022669732570648,-0.671341061592102,-0.7776090502738953,1.326862096786499,-0.44255882501602173,0.17838728427886963,-0.6748611927032471,-1.2051142454147339,-0.8239815831184387,0.28106871247291565,0.3387269973754883,1.6712868213653564,0.9930893778800964,0.11294268071651459,-0.355156272649765,-0.2544764578342438,0.21112777292728424,0.808944582939148,0.8645104169845581,0.04559803009033203,0.9165525436401367,1.219681978225708,-0.25876927375793457,-0.44890207052230835,0.7679029703140259,-0.5141115784645081,-0.859565794467926,2.0016586780548096,0.45209115743637085,0.1252627968788147,-0.0842946320772171,-0.029780689626932144,-0.3647404611110687,-1.2853705883026123,0.23707576096057892,0.03887496143579483,0.27863776683807373,-0.9096376299858093,0.30282023549079895,0.011122592724859715,0.27540838718414307,0.2985185384750366,-0.10122798383235931,1.8759520053863525,-0.5296151638031006,-0.5892390012741089,-0.5642194747924805,0.0893038660287857,-0.8420001864433289,-0.10648636519908905,-0.09748716652393341,0.26267051696777344,-0.09292731434106827,1.1892014741897583,-0.11808426678180695,-0.6553434133529663,-1.051411747932434,-0.2320442795753479,-0.09051480889320374,0.631685733795166,0.04233448952436447,-0.8703250885009766,0.3165840208530426,0.45698386430740356,0.5455654859542847,-0.6606128811836243,0.15303926169872284,0.429840087890625,1.1502946615219116,1.156381368637085,1.0610631704330444,-0.7879672646522522,0.25082477927207947,-0.8850533366203308,-0.5684102773666382,-0.2299082726240158,-0.14867037534713745,0.42751482129096985,-0.32126185297966003,-0.400333046913147,-0.5986413955688477,-0.29928991198539734,-1.4156979322433472,0.14761969447135925,0.43924906849861145,1.5840562582015991,-0.2790668308734894,-0.7294028997421265,2.1316654682159424,0.17320215702056885,-0.9727721810340881,0.2687208652496338,0.6732229590415955,0.06628374010324478,0.1271054893732071,-0.6207897067070007,-0.15444684028625488,-0.27974459528923035,-0.02142704837024212,0.8659043312072754,0.5633291602134705,0.6273641586303711,-0.10897388309240341,-0.318043053150177,0.06726310402154922,0.159338116645813,-0.06530430912971497,0.6672672629356384,0.8800674080848694,-0.6829332113265991,2.5692195892333984,0.37677425146102905,-0.16190414130687714,0.9793604016304016,0.8890941739082336,0.7897772789001465,0.04416855797171593,1.0040582418441772,0.2685846984386444,-0.06947746127843857,1.3206597566604614,-1.1661540269851685,-0.9827037453651428,-0.0806010514497757,0.3187474012374878,-0.3731958270072937,-1.089308738708496,0.8293014168739319,-0.990375280380249,0.6604303121566772,-0.5484406352043152,-0.46564626693725586,-0.544131875038147,1.0870071649551392,0.7128417491912842,1.475590705871582,0.5493463277816772,0.41195884346961975,0.6187483072280884,1.1712015867233276,-0.38256824016571045,-0.036205608397722244,0.3162015974521637,0.5261762738227844,1.334542989730835,0.8164039850234985,0.44732189178466797,-0.291089802980423,0.9779516458511353,0.15106071531772614,-0.25820961594581604,0.9126017689704895,-0.3260732889175415,-0.669617772102356,-0.6495586037635803,0.19710257649421692,-0.7332280278205872,-1.0122227668762207,0.8951730728149414,-0.5685668587684631,0.40515679121017456,-0.6681172251701355,-0.9544345140457153,-0.5523615479469299,0.8543334603309631,0.8590046763420105,0.41351014375686646,0.5147934556007385,0.17363832890987396,0.19457730650901794,0.632446825504303,-0.22646094858646393,-0.436611145734787,0.497821569442749,0.29174402356147766,0.8134683966636658,-0.2297683209180832,-0.3617311120033264,-0.1673479825258255,-0.12818478047847748,0.2764618396759033,0.6725765466690063,-0.5694319009780884,-0.8620311617851257,-0.6788884997367859,0.32880470156669617,0.460777223110199,-0.5478334426879883,-0.3114506006240845,0.6243056654930115,-0.6687657237052917,0.11842963844537735,0.22944892942905426,-1.2188796997070313,-0.20761042833328247,0.6220580339431763,-0.155718132853508,0.8070268630981445,-0.6682194471359253,0.44925591349601746,0.7494160532951355,0.512540340423584,0.19876740872859955,1.047316074371338,0.9017547369003296,1.070163607597351,0.8700261116027832,0.3068486154079437,0.5245258212089539,-0.6425108909606934,0.2667092978954315,0.2269994467496872,-0.6705397963523865,0.27613556385040283,-0.6249431371688843,0.06411184370517731,-0.8239840865135193,0.909169614315033,0.10715019702911377,-0.5578763484954834,0.37030166387557983,-1.0448126792907715,1.3888171911239624,-0.03932305425405502,-0.567981481552124,-0.19631582498550415,-0.30840277671813965,0.2904043197631836,0.2797003984451294,0.2573944926261902,-0.2161392718553543,-0.5839250087738037,0.5180878043174744,0.4972877502441406,-0.7640942335128784,0.19122838973999023,-0.16505634784698486,0.05222830921411514,0.932066023349762,0.8405758142471313,-0.1707942932844162,0.6429200768470764,0.31196820735931396,-0.08168772608041763,0.6284558773040771,-0.8893150687217712,-0.29277923703193665,0.00001979253465833608,0.33641424775123596,-1.013192057609558,-1.1789698600769043,0.833037793636322,-0.5261089205741882,0.1875745952129364,-0.10414288938045502,-0.7357660531997681,-0.25015637278556824,1.1590795516967773,0.8945097327232361,0.796560525894165,0.256344199180603,0.6373971104621887,0.8426874279975891,1.0562388896942139,-0.36270588636398315,-0.20537203550338745,1.163278341293335,1.0329394340515137,1.1160492897033691,-0.6513965725898743,0.399715781211853,-0.2801867723464966,-0.6275620460510254,-0.06068440154194832,-0.2871554493904114,-0.7828778028488159,-0.4319239556789398,0.4128188192844391,0.040344174951314926,-0.5155084133148193,0.20642724633216858,1.1585496664047241,-1.2182308435440063,0.27082136273384094,-0.2412320226430893,0.7082862257957458,1.4175732135772705,1.2240420579910278,-0.3355056047439575,-0.5588685870170593,-0.6817013621330261,-1.3802958726882935,0.03150052949786186,0.4535636901855469,0.5920174717903137,0.531774640083313,-0.08498667925596237,0.12819986045360565,-0.738747239112854,-0.021269557997584343,0.5784901976585388,0.3342714011669159,-0.11014880239963531,1.0943033695220947,-0.23790474236011505,0.14689499139785767,1.0234400033950806,-0.5258214473724365,-0.5782617926597595,-0.4416986405849457,0.19617556035518646,-1.061668038368225,-1.4971425533294678,0.7377316355705261,-0.01717524044215679,0.059828877449035645,-0.8310846090316772,-1.1264944076538086,-0.80897456407547,0.9953399300575256,1.2699289321899414,0.47459855675697327,0.8024253845214844,-0.11430663615465164,0.6432992219924927,0.3892398774623871,-0.6947384476661682,-0.16999311745166779,1.0892692804336548,0.6629189252853394,0.7663866877555847,0.2946764826774597,-0.14677798748016357,-0.915239691734314,0.648105800151825,0.42874038219451904,-1.5069595575332642,0.15311633050441742,0.44942811131477356,-0.19262541830539703,-0.4660469591617584,-0.07816177606582642,-0.17071062326431274,0.09012595564126968,0.14155377447605133,0.2410794347524643,0.3037315905094147,-0.7203934192657471,-0.2456377148628235,-0.4860740602016449,0.2028784155845642,0.1215893030166626,-0.03539668396115303,0.11712637543678284,-0.09594109654426575,-0.20618166029453278,-0.3009122908115387,0.43546462059020996,-1.4107133150100708,-0.43830153346061707,-0.1750880777835846,-0.22801193594932556,-0.6689326167106628,-0.8990393280982971,-1.603607416152954,-0.029513057321310043,0.9650812745094299,-1.3695765733718872,-0.41547873616218567,0.25683772563934326,0.6455115675926208,0.38577714562416077,-0.39706408977508545,0.5291908383369446,0.6369709968566895,-0.5106942653656006,0.37293359637260437,-0.546414315700531,-0.9124982357025146,-0.10458727926015854,-0.1521402895450592,-0.38889315724372864,-0.4418606758117676,-0.37505805492401123,-0.3995495140552521,0.4560188949108124,-0.20249931514263153,-0.6780158877372742,1.3567328453063965,-1.5672022104263306,-0.735268771648407,-0.14603647589683533,0.06361953169107437,0.8489999175071716,0.7959815859794617,-0.11006850749254227,0.6162149906158447,0.44001826643943787,0.14080558717250824,0.6905249953269958,-1.0586180686950684,-0.6604766249656677,0.043975770473480225,0.5684985518455505,-1.1190121173858643,-0.7761772274971008,1.1052145957946777,-0.8496923446655273,0.6078920364379883,-0.07413584738969803,-0.6236717700958252,-0.509117066860199,1.033728837966919,0.8460415601730347,1.3078738451004028,0.5828595161437988,0.6209210753440857,0.7988467812538147,1.0836931467056274,-0.04437783360481262,0.03735081106424332,0.7932355403900146,0.9805241823196411,1.0995995998382568,0.966509222984314,0.6914364099502563,0.16137634217739105,0.4495791792869568,0.37704747915267944,0.40282171964645386,0.4404858648777008,-0.9777610301971436,-0.7101863026618958,0.14420849084854126,0.617152214050293,-0.8389855027198792,-0.7676858305931091,1.0068275928497314,-0.6768046617507935,0.5385095477104187,-0.09278620779514313,-0.6567745208740234,-0.46109452843666077,0.9558238983154297,0.7846846580505371,1.2763396501541138,0.42790159583091736,0.5450964570045471,0.815047025680542,1.0330729484558105,-0.3398989140987396,0.33246129751205444,0.8189277052879333,0.8347641229629517,1.1229761838912964,-0.16399404406547546,-0.22572007775306702,1.0524320602416992,-0.4887780249118805,-0.6347024440765381,1.1557198762893677,0.19293943047523499,0.2834494113922119,0.677873969078064,0.7462244629859924,-0.5873752236366272,0.5475906729698181,-0.29814934730529785,-0.3879757523536682,0.4496678411960602,-0.7503424882888794,0.6225689649581909,0.5703457593917847,0.7564542889595032,-0.3406316936016083,-0.6709890365600586,-0.2805643677711487,0.3618464767932892,-0.46479228138923645,-0.3593950569629669,-0.3048691153526306,-1.0537781715393066,1.5071687698364258,-0.2992231249809265,-0.5614590048789978,0.12992247939109802,0.0884135365486145,0.5552746057510376,-1.0054588317871094,-0.22492484748363495,-0.32112112641334534,-0.6928697228431702,0.7947994470596313,-0.15253746509552002,-1.406402826309204,-1.2375208139419556,0.19036045670509338,-0.08120984584093094,-0.930750846862793,0.3041529655456543,-0.1822163462638855,1.2676634788513184,-0.680855393409729,-0.7604885697364807,0.15497587621212006,1.0198253393173218,0.7305411100387573,0.1330350786447525,-0.18078266084194183,-0.028212804347276688,0.5382271409034729,0.6797364950180054,-0.04014929383993149,-0.92384272813797,1.589111566543579,1.3267548084259033,0.8252757787704468,-0.24589121341705322,-0.745435357093811,0.03374708071351051,1.0796890258789063,-0.0345788449048996,0.26186418533325195,0.3473266363143921,-0.04245201125741005,-0.270968496799469,0.09531445801258087,0.16971659660339355,-0.5853973627090454,-0.527783215045929,1.419922113418579,-0.29719898104667664,-0.015104087069630623,-1.1779688596725464,-1.7442817687988281,-1.262514591217041,0.1709621399641037,0.5628424286842346,1.1410824060440063,0.5675120949745178,-0.07556313276290894,-0.3855917751789093,0.0737542062997818,-0.08964429795742035,0.21092528104782104,0.8803723454475403,0.08087515085935593,1.2146313190460205,0.5972145199775696,0.6764135360717773,0.1557960957288742,0.3065654933452606,0.23231931030750275,0.3310283124446869,0.4879972040653229,-0.8584927320480347,-0.44426360726356506,-0.040685635060071945,0.7310882210731506,-0.3203005790710449,-0.8124907612800598,0.871746301651001,-0.725710391998291,0.2357691377401352,-0.3319537341594696,-0.4293312430381775,-0.11301340907812119,0.5491129159927368,0.44291403889656067,0.8886798620223999,0.5833640098571777,0.4553854763507843,0.5769416689872742,0.8067347407341003,-0.4507688879966736,0.3662554621696472,0.4840613305568695,0.7085445523262024,0.8797605037689209]},"cellActivationHidden":{"rows":20,"columns":20,"weights":[0.15107570588588715,0.33610936999320984,-1.1616096496582031,-0.9503452181816101,0.3473687171936035,-0.6007074117660522,-0.005655639339238405,1.4966938495635986,-0.2768835425376892,-0.8298643827438354,0.2681850492954254,1.1670011281967163,-0.9179511070251465,0.03470199927687645,-0.7880458235740662,-1.1101341247558594,-0.047556519508361816,0.9946438074111938,0.02273198775947094,-0.42472249269485474,0.0523763969540596,0.1833333969116211,0.25239232182502747,0.6384931802749634,-1.2372061014175415,1.0134986639022827,0.5802671313285828,-0.18713848292827606,0.8575056195259094,0.8980948328971863,0.007482330314815044,-0.8863231539726257,0.3067629635334015,0.743977963924408,0.9032177329063416,0.7020711898803711,-1.3311492204666138,-1.078173279762268,0.4385509788990021,1.1075903177261353,-0.6673976182937622,-1.365311861038208,-0.6733676195144653,-1.7114144563674927,2.838061571121216,1.4539055824279785,-0.6138483285903931,-0.10156797617673874,-1.1260236501693726,0.31115618348121643,1.5519298315048218,1.253354549407959,-2.0718863010406494,-0.6669843792915344,0.746855616569519,0.04939774423837662,1.0031912326812744,0.3871764540672302,-1.8080651760101318,0.2517656087875366,-2.423992872238159,0.3172505795955658,-0.9038991332054138,-0.703347384929657,2.486955404281616,-1.2949621677398682,-1.6757739782333374,0.961035966873169,-1.928420901298523,-1.327182412147522,1.8091037273406982,0.3038565218448639,-0.8568401336669922,-0.7003059983253479,-1.3660550117492676,-1.3257781267166138,1.7717735767364502,0.35819417238235474,0.3312510550022125,-1.1644383668899536,-0.3608330488204956,0.9111653566360474,-0.6412326693534851,-0.37425532937049866,0.34503087401390076,0.5074640512466431,0.7963679432868958,-0.23516395688056946,-0.9018766283988953,0.7360437512397766,-0.49126601219177246,0.368451327085495,-0.0004974790499545634,-0.2795717120170593,0.6998608112335205,0.7515180110931396,-0.4403917193412781,0.3597401976585388,0.920497477054596,-0.05967659130692482,0.2432670146226883,-1.0374350547790527,-0.27804800868034363,0.22357642650604248,-0.0916462242603302,-0.1808718591928482,-0.16116364300251007,-0.8001368045806885,-0.00205703591927886,-0.2442059963941574,-0.1137600690126419,1.3949546813964844,-0.037240657955408096,0.06658125668764114,-0.1931268870830536,-0.29243677854537964,0.012875002808868885,0.07763644307851791,-0.07729633152484894,-0.17716637253761292,-0.3775680959224701,-0.05395650491118431,-0.48507875204086304,-0.7769363522529602,1.3109103441238403,-1.2825356721878052,-0.7038708925247192,0.6896315217018127,-0.8877828121185303,-0.8375117182731628,0.3009282350540161,0.6969249248504639,-0.85194993019104,-1.5489026308059692,-0.7703413963317871,-0.9039362072944641,0.5357410311698914,0.3986392617225647,-0.8273027539253235,-0.5527378916740417,0.07743097096681595,-0.2045602798461914,-0.9446343779563904,0.5484284162521362,-1.107877492904663,0.5050525665283203,0.8828818202018738,-1.3796496391296387,0.9121408462524414,0.45564019680023193,0.3328082263469696,-1.5204660892486572,0.1279143989086151,0.5843898057937622,0.4378558397293091,0.5998507738113403,-1.1414132118225098,-1.1760073900222778,0.1405935287475586,0.7675603628158569,-0.5656542778015137,0.39762791991233826,-0.7110065221786499,-0.3670049011707306,1.3003840446472168,-1.0693072080612183,-0.4375946819782257,1.3188608884811401,-1.5125577449798584,-1.0725207328796387,0.7603729963302612,0.31697821617126465,-1.3870422840118408,-1.672099232673645,-1.1425405740737915,-1.0354797840118408,0.7615370154380798,-0.7019696831703186,-0.7949140071868896,-0.5733665823936462,0.27872607111930847,-1.203133225440979,0.040905363857746124,0.4904382526874542,0.07593508809804916,0.9144617319107056,0.5002202391624451,-0.5379143357276917,0.18592771887779236,-0.18157599866390228,-0.12077442556619644,1.2264583110809326,0.2154553234577179,0.25235939025878906,0.21191973984241486,-0.11307059973478317,-0.11217271536588669,0.6270506381988525,-0.04918544739484787,-0.1111077144742012,0.60517418384552,-0.007532172836363316,-0.5026339292526245,1.9447776079177856,-1.3081775903701782,-0.3727351725101471,2.2079014778137207,-0.9969035983085632,0.40760815143585205,-0.07855315506458282,-0.057654403150081635,-0.09750790148973465,0.6689574718475342,-0.9442145228385925,-0.034185342490673065,0.43919384479522705,-0.8392820954322815,-0.765836238861084,-0.3618263006210327,0.0035026611294597387,0.08703641593456268,0.6122728586196899,1.4452624320983887,0.8822081089019775,-1.1617029905319214,-0.31376227736473083,-0.5580524206161499,